/* Generated by Edge Impulse
*
* Permission is hereby granted, free of charge, to any person obtaining a copy
* of this software and associated documentation files (the "Software"), to deal
* in the Software without restriction, including without limitation the rights
* to use, copy, modify, merge, publish, distribute, sublicense, and/or sell
* copies of the Software, and to permit persons to whom the Software is
* furnished to do so, subject to the following conditions:
*
* The above copyright notice and this permission notice shall be included in
* all copies or substantial portions of the Software.
*
* THE SOFTWARE IS PROVIDED "AS IS", WITHOUT WARRANTY OF ANY KIND, EXPRESS OR
* IMPLIED, INCLUDING BUT NOT LIMITED TO THE WARRANTIES OF MERCHANTABILITY,
* FITNESS FOR A PARTICULAR PURPOSE AND NONINFRINGEMENT. IN NO EVENT SHALL THE
* AUTHORS OR COPYRIGHT HOLDERS BE LIABLE FOR ANY CLAIM, DAMAGES OR OTHER
* LIABILITY, WHETHER IN AN ACTION OF CONTRACT, TORT OR OTHERWISE, ARISING FROM,
* OUT OF OR IN CONNECTION WITH THE SOFTWARE OR THE USE OR OTHER DEALINGS IN THE
* SOFTWARE.
*/
// Generated on: 20.09.2021 23:09:22

#include <stdio.h>
#include <stdlib.h>
#include <vector>
#include "edge-impulse-sdk/tensorflow/lite/c/builtin_op_data.h"
#include "edge-impulse-sdk/tensorflow/lite/c/common.h"
#include "edge-impulse-sdk/tensorflow/lite/micro/micro_mutable_op_resolver.h"
#include "edge-impulse-sdk/porting/ei_classifier_porting.h"

#if EI_CLASSIFIER_PRINT_STATE
#if defined(__cplusplus) && EI_C_LINKAGE == 1
extern "C" {
    extern void ei_printf(const char *format, ...);
}
#else
extern void ei_printf(const char *format, ...);
#endif
#endif

#if defined __GNUC__
#define ALIGN(X) __attribute__((aligned(X)))
#elif defined _MSC_VER
#define ALIGN(X) __declspec(align(X))
#elif defined __TASKING__
#define ALIGN(X) __align(X)
#endif

using namespace tflite;
using namespace tflite::ops;
using namespace tflite::ops::micro;

namespace {

constexpr int kTensorArenaSize = 4112;

#if defined(EI_CLASSIFIER_ALLOCATION_STATIC)
uint8_t tensor_arena[kTensorArenaSize] ALIGN(16);
#elif defined(EI_CLASSIFIER_ALLOCATION_STATIC_HIMAX)
#pragma Bss(".tensor_arena")
uint8_t tensor_arena[kTensorArenaSize] ALIGN(16);
#pragma Bss()
#elif defined(EI_CLASSIFIER_ALLOCATION_STATIC_HIMAX_GNU)
uint8_t tensor_arena[kTensorArenaSize] ALIGN(16) __attribute__((section(".tensor_arena")));
#else
#define EI_CLASSIFIER_ALLOCATION_HEAP 1
uint8_t* tensor_arena = NULL;
#endif

static uint8_t* tensor_boundary;
static uint8_t* current_location;

template <int SZ, class T> struct TfArray {
  int sz; T elem[SZ];
};
enum used_operators_e {
  OP_RESHAPE, OP_CONV_2D, OP_MAX_POOL_2D, OP_FULLY_CONNECTED, OP_SOFTMAX,  OP_LAST
};
struct TensorInfo_t { // subset of TfLiteTensor used for initialization from constant memory
  TfLiteAllocationType allocation_type;
  TfLiteType type;
  void* data;
  TfLiteIntArray* dims;
  size_t bytes;
  TfLiteQuantization quantization;
};
struct NodeInfo_t { // subset of TfLiteNode used for initialization from constant memory
  struct TfLiteIntArray* inputs;
  struct TfLiteIntArray* outputs;
  void* builtin_data;
  used_operators_e used_op_index;
};

TfLiteContext ctx{};
TfLiteTensor tflTensors[39];
TfLiteEvalTensor tflEvalTensors[39];
TfLiteRegistration registrations[OP_LAST];
TfLiteNode tflNodes[19];

const TfArray<2, int> tensor_dimension0 = { 2, { 1,845 } };
const TfArray<1, float> quant0_scale = { 1, { 0.0039215688593685627, } };
const TfArray<1, int> quant0_zero = { 1, { -128 } };
const TfLiteAffineQuantization quant0 = { (TfLiteFloatArray*)&quant0_scale, (TfLiteIntArray*)&quant0_zero, 0 };
const ALIGN(8) int32_t tensor_data1[2] = { -1, 128, };
const TfArray<1, int> tensor_dimension1 = { 1, { 2 } };
const ALIGN(8) int32_t tensor_data2[16] = { 7212, -8481, -4160, -1914, -7614, 12410, -12386, -4390, -2457, -3413, 4188, -11297, -4170, -12453, -3038, -2620, };
const TfArray<1, int> tensor_dimension2 = { 1, { 16 } };
const TfArray<16, float> quant2_scale = { 16, { 2.0054258129675873e-05, 9.6887579275062308e-06, 1.3430786566459574e-05, 1.1508067473187111e-05, 1.0488291081856005e-05, 1.1444069059507456e-05, 1.1670727872115094e-05, 1.2050765690219123e-05, 1.3065417988400441e-05, 1.1143664778501261e-05, 1.210496157000307e-05, 1.0591395948722493e-05, 1.3636003131978214e-05, 1.2074047845089808e-05, 9.6497997219557874e-06, 1.1079569958383217e-05, } };
const TfArray<16, int> quant2_zero = { 16, { 0,0,0,0,0,0,0,0,0,0,0,0,0,0,0,0 } };
const TfLiteAffineQuantization quant2 = { (TfLiteFloatArray*)&quant2_scale, (TfLiteIntArray*)&quant2_zero, 0 };
const ALIGN(8) int32_t tensor_data3[32] = { -1374, 2, -1387, -1469, -1242, -759, -3015, -401, -668, -2843, -1474, -249, -1612, -167, -539, -1644, -937, 201, -2755, 71, -1810, -761, -2311, -1247, -530, -2761, -218, -623, -1886, -2234, 889, -3527, };
const TfArray<1, int> tensor_dimension3 = { 1, { 32 } };
const TfArray<32, float> quant3_scale = { 32, { 5.1714108849409968e-05, 4.1160401451634243e-05, 5.6726312323007733e-05, 6.6002787207253277e-05, 4.0604831156088039e-05, 3.9500402635894716e-05, 3.8639758713543415e-05, 4.342691318015568e-05, 6.1561862821690738e-05, 4.2478575778659433e-05, 4.8684963985579088e-05, 5.3053408919367939e-05, 6.1737380747217685e-05, 6.7128872615285218e-05, 5.3518782806349918e-05, 3.6528213968267664e-05, 4.5803604734828696e-05, 4.2289630073355511e-05, 3.5910376027459279e-05, 4.0529703255742788e-05, 3.6565284972311929e-05, 3.9732367440592498e-05, 5.2560510084731504e-05, 4.7827925300225616e-05, 4.2083556763827801e-05, 3.703061884152703e-05, 6.1612503486685455e-05, 4.5650926040252671e-05, 3.5376408050069585e-05, 3.7455876736203209e-05, 5.2981511544203386e-05, 3.515476782922633e-05, } };
const TfArray<32, int> quant3_zero = { 32, { 0,0,0,0,0,0,0,0,0,0,0,0,0,0,0,0,0,0,0,0,0,0,0,0,0,0,0,0,0,0,0,0 } };
const TfLiteAffineQuantization quant3 = { (TfLiteFloatArray*)&quant3_scale, (TfLiteIntArray*)&quant3_zero, 0 };
const ALIGN(8) int32_t tensor_data4[64] = { -3865, -2685, -3909, -2522, -2247, -3510, -3321, 207, -1741, -3950, -1794, -3097, -3948, -1427, -1972, -2815, -2873, -53, -397, -2310, -4357, -993, -4807, -3212, -2941, -2607, -1616, -2581, -3030, -3705, -2783, 992, -3062, -4006, -2593, -1515, -1489, -906, -2257, -3525, -521, -2827, -503, -1226, -3387, -2934, -2053, -4807, -2567, -2803, -2408, -229, -2312, -2838, -200, -3360, -2802, -1748, -2332, -1505, -1472, -2702, -2896, -2987, };
const TfArray<1, int> tensor_dimension4 = { 1, { 64 } };
const TfArray<64, float> quant4_scale = { 64, { 2.284735455759801e-05, 4.8478428652742878e-05, 3.283464684500359e-05, 3.0751918529858813e-05, 3.4189117286587134e-05, 2.72607576334849e-05, 2.1107362044858746e-05, 4.4032629375578836e-05, 4.4810472900280729e-05, 3.4402393794152886e-05, 3.7794059608131647e-05, 3.1733081414131448e-05, 3.3551212254678831e-05, 4.2769679566845298e-05, 3.249206201871857e-05, 3.0249118935898878e-05, 3.0558661819668487e-05, 5.2108891395619139e-05, 3.8221034628804773e-05, 3.5832857975037768e-05, 2.5480067051830702e-05, 3.0150951715768315e-05, 2.4320579541381449e-05, 2.6395176973892376e-05, 2.2852349502500147e-05, 2.1199510229052976e-05, 2.0838881027884781e-05, 2.5890885808621533e-05, 2.5333780286018737e-05, 3.772275522351265e-05, 1.9407780200708658e-05, 3.6169003578834236e-05, 3.7463370972545817e-05, 2.3764563593431376e-05, 2.3609811250935309e-05, 3.2170290069188923e-05, 3.1425450288224965e-05, 3.2478121283929795e-05, 2.7938511266256683e-05, 2.4602162739029154e-05, 4.0956372686196119e-05, 3.436653787503019e-05, 4.5591681555379182e-05, 4.3231611925875768e-05, 2.5020508473971859e-05, 3.8242535083554685e-05, 4.1127354052150622e-05, 3.1707724701846018e-05, 4.3391049985075369e-05, 2.438378578517586e-05, 3.4283380955457687e-05, 4.8449433961650357e-05, 2.3116221200325526e-05, 3.1303821742767468e-05, 3.6425441066967323e-05, 3.4691118344198912e-05, 2.4857796233845875e-05, 3.2061136153060943e-05, 1.9719531337614171e-05, 1.8456443285685964e-05, 8.7893473391886801e-05, 2.1456644390127622e-05, 2.8738251785398461e-05, 2.0987388779758476e-05, } };
const TfArray<64, int> quant4_zero = { 64, { 0,0,0,0,0,0,0,0,0,0,0,0,0,0,0,0,0,0,0,0,0,0,0,0,0,0,0,0,0,0,0,0,0,0,0,0,0,0,0,0,0,0,0,0,0,0,0,0,0,0,0,0,0,0,0,0,0,0,0,0,0,0,0,0 } };
const TfLiteAffineQuantization quant4 = { (TfLiteFloatArray*)&quant4_scale, (TfLiteIntArray*)&quant4_zero, 0 };
const ALIGN(8) int32_t tensor_data5[128] = { 747, -2050, -1613, 1004, 783, -1179, -1734, -1648, 1584, 105, -2427, -589, -2472, -640, -1514, -1215, -783, -1361, -2402, 755, -2553, -167, -843, -2749, -1641, -1320, -1977, -3778, -693, -380, -3474, 35, 1729, 20, 1007, -2108, -168, -4529, -1364, -2247, -144, -1599, -1080, -959, 3223, 340, -4303, -2273, 172, -2840, 579, 538, -583, -1899, 747, -2651, -3585, -3389, -3886, -1629, 216, 870, -3556, -1764, -2190, -421, 109, -1496, 33, 96, -1119, 761, 3138, -238, -2792, 594, -1148, -1317, -2681, -2487, -1861, -2336, -1214, -1181, 45, -6139, 1097, -365, -4217, 1443, -1014, -1780, -503, 38, -2447, -2558, -236, 468, -931, -2409, -1831, -1588, -5827, -176, -4044, -3070, -3383, -2073, -147, -2453, -114, -438, -528, -1916, -3558, -3111, -3000, -3306, -148, -885, -3220, -2585, 1310, -2288, 193, -3033, -2334, 239, };
const TfArray<1, int> tensor_dimension5 = { 1, { 128 } };
const TfArray<128, float> quant5_scale = { 128, { 3.7278405216056854e-05, 2.7513746317708865e-05, 6.0421425587264821e-05, 6.1814127548132092e-05, 4.0595921745989472e-05, 4.6626264520455152e-05, 5.4959709814283997e-05, 1.9628390873549506e-05, 6.4307059801649302e-05, 2.9724420528509654e-05, 3.7745194276794791e-05, 6.8478722823783755e-05, 2.1790147002320737e-05, 5.2425461035454646e-05, 4.9762580601964146e-05, 8.2703030784614384e-05, 7.1019007009454072e-05, 2.9648484996869229e-05, 2.4436960302409716e-05, 7.4639698141254485e-05, 1.9440665710135363e-05, 5.6799439335009083e-05, 3.2430238206870854e-05, 5.0181231927126646e-05, 6.6724336647894233e-05, 2.8060099793947302e-05, 1.9246463125455193e-05, 2.3950189643073827e-05, 3.8205016608117148e-05, 3.8694885006407276e-05, 3.082073453697376e-05, 5.8081797760678455e-05, 6.7785396822728217e-05, 4.7714427637401968e-05, 5.2627397963078693e-05, 2.5653596821939573e-05, 4.0356047975365072e-05, 2.2327916667563841e-05, 4.2792253225343302e-05, 2.4623415811220184e-05, 3.7665893614757806e-05, 4.9932219553738832e-05, 3.6933859519194812e-05, 3.6184450436849147e-05, 4.2276900785509497e-05, 5.7364843087270856e-05, 3.648795245680958e-05, 4.6902212488930672e-05, 6.4607600506860763e-05, 6.7544649937190115e-05, 5.3863062930759043e-05, 3.6481251299846917e-05, 5.282409256324172e-05, 2.0657407731050625e-05, 2.7930858777835965e-05, 2.9386408641585149e-05, 2.7551770472200587e-05, 2.5236322471755557e-05, 2.9395234378171153e-05, 2.9519304007408209e-05, 5.5801079724915326e-05, 4.5845208660466596e-05, 1.9436592992860824e-05, 2.0299474272178486e-05, 4.1593666537664831e-05, 2.5791423468035646e-05, 4.4622316636377946e-05, 5.0015383749268949e-05, 4.6724020648980513e-05, 4.9196769396075979e-05, 4.3006712076021358e-05, 4.6143373765517026e-05, 3.9096667023841292e-05, 3.2885316613828763e-05, 3.8872851291671395e-05, 3.975295476266183e-05, 6.0382568335626274e-05, 2.7955600671702996e-05, 2.0828776541748084e-05, 3.5158809623681009e-05, 4.1505551052978262e-05, 2.2489792172564194e-05, 6.3098603277467191e-05, 5.9616479120450094e-05, 3.6806337448069826e-05, 4.3905223719775677e-05, 4.8289308324456215e-05, 2.8795118851121515e-05, 4.9934380513150245e-05, 5.9230111219221726e-05, 6.1843005823902786e-05, 5.7008837757166475e-05, 7.5651580118574202e-05, 4.5334498281590641e-05, 3.5027449484914541e-05, 1.6427369700977579e-05, 5.8692796301329508e-05, 3.7440157029777765e-05, 4.8041896661743522e-05, 1.6380499801016413e-05, 3.7376303225755692e-05, 3.4031068935291842e-05, 3.3726206311257556e-05, 6.7172695707995445e-05, 1.7848504285211675e-05, 3.3513410016894341e-05, 3.148098403471522e-05, 5.0864789955085143e-05, 5.5731066822772846e-05, 1.9544571841834113e-05, 6.5020059992093593e-05, 6.011697041685693e-05, 4.7613131755497307e-05, 2.4818482415867038e-05, 1.8901955627370626e-05, 3.8542773836525157e-05, 3.4997032344108447e-05, 2.8704422220471315e-05, 5.1730316044995561e-05, 6.6220738517586142e-05, 2.0599438357749023e-05, 1.8709599316935055e-05, 3.9191832911456004e-05, 2.8771679353667423e-05, 4.8644214984960854e-05, 1.8881797586800531e-05, 4.565177732729353e-05, 4.9909620429389179e-05, } };
const TfArray<128, int> quant5_zero = { 128, { 0,0,0,0,0,0,0,0,0,0,0,0,0,0,0,0,0,0,0,0,0,0,0,0,0,0,0,0,0,0,0,0,0,0,0,0,0,0,0,0,0,0,0,0,0,0,0,0,0,0,0,0,0,0,0,0,0,0,0,0,0,0,0,0,0,0,0,0,0,0,0,0,0,0,0,0,0,0,0,0,0,0,0,0,0,0,0,0,0,0,0,0,0,0,0,0,0,0,0,0,0,0,0,0,0,0,0,0,0,0,0,0,0,0,0,0,0,0,0,0,0,0,0,0,0,0,0,0 } };
const TfLiteAffineQuantization quant5 = { (TfLiteFloatArray*)&quant5_scale, (TfLiteIntArray*)&quant5_zero, 0 };
const ALIGN(8) int32_t tensor_data6[2] = { -1047, 1047, };
const TfArray<1, int> tensor_dimension6 = { 1, { 2 } };
const TfArray<1, float> quant6_scale = { 1, { 0.00010340354492655024, } };
const TfArray<1, int> quant6_zero = { 1, { 0 } };
const TfLiteAffineQuantization quant6 = { (TfLiteFloatArray*)&quant6_scale, (TfLiteIntArray*)&quant6_zero, 0 };
const ALIGN(8) int8_t tensor_data7[2*128] = { 
  -66, 66, 33, -52, 47, 55, -10, 18, -1, -62, -19, 12, 55, 54, -64, 43, -76, 39, -29, 12, -46, -44, -38, 31, -55, 33, 56, -68, -24, 37, 79, -20, -17, -22, -99, -14, 50, -3, 55, -1, -2, 32, 36, -22, 32, 93, -17, 8, -87, 37, 68, -56, 78, 38, -67, -8, -87, -2, -29, 19, -71, 39, 22, -51, -68, -15, 11, 78, 50, -47, -76, 9, -84, 16, 18, 13, 47, 40, 19, 40, 63, 7, -10, -78, -48, 46, -1, 22, 33, -43, 2, 0, 46, -12, -31, -57, 16, -50, 1, 6, 26, -56, -81, -48, -31, 39, 32, 83, -80, -42, -55, 109, -61, -3, 19, 99, 50, -28, -37, 79, -19, 37, -67, 14, 48, 52, 64, -53, 
  -54, -60, -10, 37, 59, -19, -4, -27, 91, -55, -82, 42, 48, -7, 10, -10, -39, 49, -29, 101, -45, 44, 11, 22, -4, 26, 32, 34, -5, -70, 67, -57, 99, 59, 14, 45, -38, -11, 5, 21, -44, -19, -4, 7, 77, 8, -40, 54, -30, -43, -81, -32, -37, -22, -17, -22, -54, 3, 42, -19, 26, -73, 31, 37, 42, -22, -55, 17, -40, -82, 5, 51, 50, 37, -67, 33, -19, 31, -52, 0, -1, 2, -53, 10, -58, -67, 64, -10, -7, 47, -125, -68, -39, 43, -90, 44, 127, -7, -72, -11, -12, 41, -32, 40, 16, -29, 11, -24, 67, 23, 19, 4, -32, -46, 50, -48, -19, -39, -77, 55, -38, 35, 16, -28, -75, 54, 14, 62, 
};
const TfArray<2, int> tensor_dimension7 = { 2, { 2,128 } };
const TfArray<1, float> quant7_scale = { 1, { 0.0027938936837017536, } };
const TfArray<1, int> quant7_zero = { 1, { 0 } };
const TfLiteAffineQuantization quant7 = { (TfLiteFloatArray*)&quant7_scale, (TfLiteIntArray*)&quant7_zero, 0 };
const ALIGN(8) int8_t tensor_data8[16*1*3*65] = { 
  /* [0][0][][] */ -38,-40,-12,-20,11,-2,22,-20,-54,-59,-23,-8,-24,-89,-48,-42,-25,1,-35,17,52,127,0,-46,-25,-4,-58,-13,-9,-32,-73,-23,-59,-63,-18,18,2,-30,-6,-16,-33,-50,19,37,1,-39,-22,-21,-8,-6,-7,-15,21,11,-27,13,28,-10,61,-5,-2,4,-10,-61,-43, -47,-7,-17,-2,36,30,-31,-37,0,-15,10,-52,4,-49,-69,-24,-47,8,-8,-33,7,86,25,-79,14,-21,-25,-48,-59,-9,-44,-34,-8,38,21,-15,7,-5,10,-31,-18,-20,-33,-20,-57,-14,-55,9,-40,8,-15,8,21,33,-80,-22,31,-51,-18,2,-26,40,45,5,22, -45,-43,-18,-15,-41,-9,7,-5,-37,-28,9,-30,-51,-32,-69,-30,-67,-29,86,23,8,20,17,-39,-40,-32,-7,3,-8,-40,-5,-9,-28,1,-32,-35,23,-9,3,-50,-40,-37,-28,19,-17,-9,35,-39,-24,8,53,26,-47,-2,4,16,17,17,36,0,-6,-30,-3,24,-81, 
  /* [1][0][][] */ 2,-76,-35,13,-48,-51,91,-16,-13,0,-47,-47,79,45,-21,62,79,-41,-66,48,-8,111,14,75,114,-14,-93,-110,-48,-27,34,13,28,-73,-105,-72,10,-68,-19,75,-89,-59,-33,-5,46,30,27,-50,-24,-24,-24,16,18,81,38,47,-11,35,8,8,-31,-8,55,-30,-7, 49,-27,31,1,-36,-68,11,14,63,-18,48,111,84,127,64,61,89,-14,15,65,89,107,101,94,38,-6,-36,-3,-21,-51,-13,-11,75,45,7,28,-16,-19,-3,47,27,-2,9,48,37,11,5,47,-54,-15,32,-21,-36,-7,43,-49,23,-18,0,24,3,14,19,44,72, -82,39,5,-62,9,21,-14,31,-19,-4,-10,59,-4,-19,-12,14,42,-34,-44,-38,47,110,58,42,72,34,-49,-41,-1,-36,30,-37,1,-2,27,-38,59,10,6,-62,26,-59,32,40,-13,-5,81,-59,-30,-71,-120,29,-1,-24,14,31,-18,-41,5,-5,-98,-15,-18,-85,-44, 
  /* [2][0][][] */ 1,6,-84,-33,-21,1,-21,29,8,-37,-18,-7,-28,0,-23,-43,13,13,20,-33,-50,-69,-36,-48,-49,12,23,28,53,-27,13,-35,-31,-59,-13,11,53,28,40,3,-19,62,51,-12,3,-24,52,32,-29,35,9,13,-36,6,67,19,36,-19,-8,38,40,-2,10,-2,-23, -27,-17,0,97,121,127,45,69,-19,12,12,-10,66,16,-8,7,17,62,68,-18,-14,-38,-77,-15,11,33,28,46,57,1,40,-31,4,11,40,46,-59,-17,-58,-38,-31,-58,24,-45,36,-16,-15,-8,23,-55,-92,-48,-48,23,2,-30,4,18,52,1,-92,-40,11,16,-2, -3,-45,-79,91,15,87,75,98,-1,28,-15,24,0,-100,1,-7,18,21,62,-62,24,-19,-33,12,0,-11,28,17,-41,-36,-47,-103,-19,-23,-40,23,-71,-22,31,-25,-44,-12,-22,7,-45,-45,-20,-38,-8,-22,-3,-52,-44,-94,-12,-44,-38,-40,-16,-39,-53,27,0,43,-10, 
  /* [3][0][][] */ -45,19,90,34,70,50,14,63,18,-49,11,43,34,-12,-36,-61,-71,-8,15,-60,-41,-28,15,-9,3,-78,-16,-6,33,13,9,54,16,5,94,85,20,47,15,43,39,61,49,50,26,40,84,41,64,10,-22,-32,0,-79,-16,-20,-15,35,-27,25,4,7,5,20,0, -5,-27,67,78,43,106,113,31,-19,-53,-48,35,-1,-4,8,-28,-14,86,93,-37,-73,-33,-67,-39,21,55,48,42,59,96,-54,44,-10,43,92,83,-2,100,5,-70,1,-52,-25,-12,-127,75,-72,13,22,-33,-57,-31,-27,-83,-59,-32,-33,-41,-36,44,-13,-36,-46,-9,-14, -57,6,23,14,99,81,53,38,4,-3,-8,-9,16,-17,-10,-43,-9,80,-10,-24,-2,-31,22,13,-25,21,22,58,59,-4,-11,31,-11,33,-7,74,-1,-29,-1,-55,1,10,4,16,-37,-38,-64,29,7,-26,-103,-44,-14,-57,-104,91,-10,-43,19,-52,-22,-3,-24,-6,1, 
  /* [4][0][][] */ -19,-71,-53,2,-80,31,38,-9,35,10,-15,-44,13,-81,19,-6,96,-127,62,6,-42,66,42,-62,-29,-13,-34,-71,74,-30,-120,-38,17,-86,-12,1,2,53,16,45,22,10,-24,-83,34,-29,-4,-32,5,-40,-65,47,52,-16,-5,-37,-57,29,-18,47,-46,13,21,53,-24, 74,56,-60,4,-69,-52,-85,-19,45,45,-96,24,-14,65,72,91,60,-26,40,88,69,98,108,-14,-23,-9,-14,-30,-62,-12,18,27,24,-46,-13,-56,-21,88,12,-6,4,32,51,-29,15,-16,82,54,88,52,73,48,-14,-30,6,-58,31,83,-51,27,5,-18,44,34,-27, -11,-49,11,-63,-96,-6,-38,-6,-19,2,10,-28,-54,52,15,77,49,55,14,96,18,97,9,12,16,54,-48,-80,8,-6,-32,-61,-8,-31,-106,-73,-81,17,27,38,-61,61,-12,58,7,18,-5,-14,-22,-14,35,73,-31,-54,62,29,-39,-21,-23,36,17,22,-46,-46,70, 
  /* [5][0][][] */ -8,22,-19,46,99,79,53,20,83,-45,12,39,-46,47,-7,53,-127,-69,-24,-72,-66,-124,-26,-45,-92,-59,-44,-10,-20,-54,-101,-13,5,-4,-6,62,-11,45,-83,1,-9,19,-40,48,64,-19,-21,23,-3,75,-5,-14,29,43,19,-4,-15,42,-73,24,-38,-28,40,-39,32, -15,42,78,21,21,124,120,77,-8,115,38,19,-17,63,-87,-2,-54,-5,-32,-96,16,-87,-1,11,-41,-64,-46,-31,101,-11,61,-28,-60,-24,54,-63,-42,-91,-10,34,9,110,67,86,45,-45,59,-73,1,-33,-61,-33,53,34,-17,41,31,-75,81,1,15,98,-18,107,-64, 28,38,33,62,-91,-22,-35,-79,45,21,43,-21,-22,42,18,37,-125,-65,-94,-53,-64,-123,-8,-54,-45,-3,-107,-35,-85,-28,-2,-43,-26,-4,14,-91,14,2,63,68,-15,71,64,-21,65,27,84,-46,-65,13,53,48,90,-9,32,-76,83,38,-38,-5,-6,7,73,-82,10, 
  /* [6][0][][] */ 12,-59,-9,53,-7,15,11,15,2,-16,-53,46,-15,-22,52,-62,-29,-14,13,-41,-71,-36,-35,-107,-62,-29,-31,-88,-69,-49,44,-44,-33,-67,59,9,-55,14,-29,-75,-55,-10,49,52,1,-5,-13,10,-41,-17,-31,10,-14,-12,39,48,-29,2,59,74,26,-84,-18,5,31, 18,28,-26,86,72,127,117,94,36,66,19,-21,102,-47,-66,-53,-51,79,112,73,4,66,64,50,64,94,98,44,94,51,103,61,-10,14,72,62,-16,-21,-50,-63,-17,71,0,-29,18,40,-5,15,-24,-50,11,-38,-62,7,-98,-6,14,41,2,-20,-35,30,-52,-77,-18, 65,-2,20,44,26,-26,54,75,-36,18,-12,-8,30,-4,-23,-53,-41,19,6,-80,-33,-31,-61,-52,-22,-51,-94,-5,-1,28,26,-48,-5,-55,-5,37,-9,-15,39,31,38,-11,21,18,-34,35,-45,-71,43,-2,13,-6,12,-32,11,73,31,3,98,4,-21,25,-39,3,45, 
  /* [7][0][][] */ 71,18,-18,-76,-56,-51,46,0,-5,51,18,42,54,14,33,20,57,-56,-14,24,-12,40,-20,95,39,-20,-43,27,-45,-23,-15,44,46,-29,4,-13,15,-63,-56,57,-57,-18,-19,48,-46,-59,38,-60,-52,36,23,22,-40,16,-14,-10,16,7,-21,6,8,-9,-22,21,22, -101,31,-19,-14,-85,-93,-58,-42,-16,-40,25,-61,-70,-19,7,10,38,-8,-80,-7,10,78,3,100,59,-37,-23,-117,-31,-29,28,55,-18,-91,-48,1,-34,1,40,39,-34,-34,28,-9,36,-71,20,59,-54,-6,-65,28,-38,24,-10,-54,-48,26,-49,-61,-13,-71,-16,6,-15, 14,52,16,-19,9,8,-21,2,44,39,82,11,64,127,35,78,53,24,-3,-48,8,2,23,97,32,-51,-20,12,-24,-42,-4,-31,23,23,5,-59,-10,12,27,66,28,28,-15,-29,-25,-29,61,8,-45,3,41,119,-16,-37,71,-27,-22,58,-88,-95,7,-100,-37,-36,16, 
  /* [8][0][][] */ -22,33,-42,23,-79,71,26,-5,-3,12,-32,30,2,-43,-12,-65,-72,-16,-61,-60,-13,-127,-24,-83,-76,-60,-9,6,-27,-53,-75,-19,-37,4,71,25,2,-5,-14,-2,-35,32,-34,-42,27,7,-10,32,1,14,-33,-9,33,52,59,27,18,-77,-20,-9,-55,26,0,49,86, 31,-8,-16,-1,23,-82,-14,-54,49,79,5,13,8,13,49,46,-13,-2,-40,34,31,-58,38,-12,-28,-6,19,31,-35,22,-13,-17,6,50,110,29,49,68,0,13,66,64,3,15,9,92,29,35,-65,22,-2,36,29,-18,59,-33,22,18,43,12,44,0,37,-55,-25, -14,-46,-53,-112,-70,-54,-10,9,-16,26,1,11,33,33,74,33,110,-15,-9,-2,12,23,11,10,-15,6,76,49,-48,-50,31,92,97,17,-18,-25,38,50,17,20,28,58,19,54,79,70,82,-18,2,72,26,31,13,53,59,-12,-14,21,53,28,-1,45,24,13,-24, 
  /* [9][0][][] */ 20,-43,1,-81,-6,-58,-41,31,-7,-34,8,-82,32,-81,-13,-29,-56,-52,1,-49,-20,-68,-21,-70,20,63,-61,-2,73,-6,58,-8,-7,-50,29,45,8,105,57,24,-6,58,9,21,-5,-38,14,115,-28,-19,25,0,50,-71,77,-16,15,41,45,-16,-17,56,20,-66,14, -35,-116,27,33,103,-117,-65,-17,-61,-13,-55,-29,-82,-41,-14,-6,37,75,34,55,-9,-109,-63,12,-75,-11,-34,63,59,-1,107,80,33,33,79,-51,29,-15,-51,42,-17,84,-16,12,-22,9,23,17,-15,71,53,-8,-37,23,53,43,40,-68,74,51,-7,-24,-35,32,-101, 37,60,-103,4,-75,-88,-35,-6,-15,-56,11,-29,105,27,-56,24,-45,-63,32,-127,-70,-110,-39,17,11,20,12,14,-40,-36,28,59,-5,-8,31,82,-34,58,27,-58,-26,60,-14,61,12,16,59,-4,7,14,-92,76,-28,-33,47,61,-63,-18,9,23,24,31,-15,-42,22, 
  /* [10][0][][] */ -56,88,-1,75,19,125,60,13,1,14,29,57,30,-68,-53,-2,-35,35,39,-56,-44,-12,21,-67,-56,16,6,27,25,-10,-59,36,70,-7,21,88,38,27,22,-69,-90,104,-16,3,-45,1,4,-69,58,-6,-67,-2,14,8,-4,49,17,34,-41,-33,-9,46,3,31,-6, -25,-6,51,41,-5,50,-3,34,-39,36,27,-32,-87,43,-64,-21,-71,22,-31,31,-92,-76,-13,-4,34,-35,0,16,87,20,0,41,-9,29,8,26,16,-28,19,94,32,-18,31,7,8,42,21,-1,10,43,-4,28,44,19,8,90,-41,53,-60,30,-25,46,66,-30,-18, -75,-32,-63,-89,-49,43,8,-11,9,29,-34,42,72,44,-27,-5,-109,-44,-48,-92,-8,-57,-40,-42,-5,11,16,2,-127,-70,-2,-31,6,70,-2,-29,-41,25,-13,25,-20,-111,-14,-73,-37,8,-21,12,67,13,-3,18,-40,17,12,-52,22,59,-6,-34,-22,-30,0,-22,-34, 
  /* [11][0][][] */ 67,58,-84,20,-16,25,27,-47,44,19,41,28,-10,35,29,87,31,-48,42,-18,23,12,122,101,53,28,-19,39,21,-45,50,-37,-18,-38,-17,-37,35,22,-16,-28,-18,-38,3,25,-3,56,50,-58,25,36,32,11,9,8,23,-67,63,65,-49,-7,-5,3,41,80,-4, 63,27,-62,-56,-39,36,-10,24,23,-51,-41,69,24,41,19,65,86,-30,18,31,96,94,91,97,43,28,40,10,-2,-7,-40,14,10,8,34,-27,-4,-31,-24,-9,-7,27,54,-2,45,-59,70,24,24,-10,70,-7,25,31,37,46,-42,10,52,-14,-43,42,-49,-8,6, 65,19,18,18,-27,22,15,10,-8,18,15,15,28,119,85,55,102,15,-6,20,68,117,92,92,72,98,103,-73,-80,-22,-41,-6,2,-62,-33,-16,36,-22,83,37,15,-127,-5,37,-67,56,15,29,18,49,20,92,59,-9,3,38,7,-15,37,-21,-36,13,58,-5,32, 
  /* [12][0][][] */ 32,28,12,73,64,90,46,19,-2,-6,-25,-25,2,-46,13,-32,30,-14,67,-18,0,-24,-3,-40,-31,-5,-7,11,-16,49,-6,60,45,22,50,32,26,44,-19,-13,20,18,-12,18,-11,-25,19,10,14,19,-39,-22,-8,-24,-17,-22,88,53,43,127,8,47,35,61,-37, -74,-43,26,23,65,107,61,54,26,-4,-27,34,-1,-83,-5,-33,58,48,66,1,26,-54,-38,-7,-36,52,60,78,100,8,0,57,19,50,87,55,1,50,11,-58,-30,51,19,17,-55,-5,45,-5,-22,29,-90,-50,39,-35,-77,-40,-27,40,-24,18,-15,65,-32,-46,-7, -20,32,-55,-2,66,37,29,67,-24,13,-6,-8,12,-10,-63,-30,-48,18,22,28,-36,-12,-41,17,30,36,9,109,33,77,45,45,4,-40,66,19,44,66,-18,-7,1,33,70,26,37,19,-82,15,21,14,45,-32,4,-44,0,-29,-40,-35,45,30,-30,-1,41,38,-32, 
  /* [13][0][][] */ 70,30,33,15,-55,2,6,-11,115,67,43,36,-28,47,63,85,49,-24,-50,43,16,127,67,92,93,-29,-8,-1,-14,-29,-10,-20,6,22,-26,8,-15,-16,29,79,52,-36,5,37,-22,20,47,27,17,2,43,53,45,34,78,-22,-100,-12,13,31,44,24,-48,58,39, 7,-9,10,-25,-58,-35,-71,10,-25,-13,-10,2,78,73,67,51,68,-6,-100,4,-20,103,0,72,48,-32,38,-80,-31,16,6,-23,18,-45,-55,-51,-61,36,0,-20,11,-12,28,55,35,49,39,113,1,-5,57,39,16,3,15,2,-47,23,-62,7,-40,-26,-12,30,55, 5,-29,-7,-16,-32,-30,-1,-35,-28,47,38,-24,54,-29,50,10,14,-17,-26,43,-15,30,34,-9,18,-25,-5,-31,-23,-37,-40,-6,54,-90,-15,23,-28,1,29,38,-15,24,-17,10,-66,-16,17,24,5,-1,33,28,-18,-1,37,-3,49,-13,-46,-32,-13,-6,-1,46,-19, 
  /* [14][0][][] */ 17,-46,-86,66,47,15,-65,5,-79,-110,-45,-27,-47,-81,-13,-109,78,94,19,39,-46,-14,9,-87,-26,48,6,127,94,124,74,37,1,17,44,2,-81,27,98,12,36,4,-25,32,-18,40,70,18,-15,47,-9,-17,-68,9,-53,-11,52,65,65,42,71,-57,-17,-42,-88, 8,2,-92,86,-83,-89,44,19,-13,27,-83,-35,-27,-34,-14,-21,-11,67,22,42,-39,-64,-61,7,-23,50,-59,-33,10,-5,34,-1,25,-60,-47,62,-1,-19,-56,-75,-43,2,-27,-32,21,-25,26,-33,7,69,8,-15,-49,54,29,-34,-14,57,15,32,13,-5,15,-27,38, -93,-38,-52,63,36,72,125,113,-1,87,42,-16,2,-40,14,-13,-5,87,-37,50,-62,-66,-30,27,-62,0,51,126,26,45,29,-29,-49,-5,-47,30,-1,-45,-8,-69,-91,-48,12,13,-11,-20,-14,-81,-88,29,-73,-39,-54,-67,23,28,-7,-64,-104,-84,-87,12,19,-14,-26, 
  /* [15][0][][] */ -83,26,61,65,30,35,46,98,22,-33,-13,79,20,-23,18,-66,-91,-51,-55,-11,-5,-11,-1,1,11,-17,-50,-79,-11,-49,-44,39,39,24,106,88,70,33,63,23,-29,46,32,87,3,7,61,58,49,-13,29,6,24,22,50,32,45,-32,-3,11,-46,52,23,-16,41, 14,52,8,-26,66,51,43,-3,-81,-8,21,-16,25,-50,-75,-8,-2,76,-8,21,-103,-50,-127,-39,-11,84,111,103,65,79,25,65,93,85,70,76,68,24,10,3,-26,39,63,1,1,16,-37,23,-19,6,-77,-40,-43,-42,55,-16,83,-50,-17,35,3,-17,-72,-2,-2, -61,36,29,12,27,-15,17,89,-39,-70,-47,-107,-10,-55,-74,-95,39,30,61,15,-31,4,-70,-22,52,64,17,81,112,69,50,26,23,20,109,29,46,39,-31,-42,-54,9,18,13,-49,-81,-45,-39,-82,3,-31,-38,4,-9,-13,43,-15,1,-10,-12,89,27,26,-37,-78, 
};
const TfArray<4, int> tensor_dimension8 = { 4, { 16,1,3,65 } };
const TfArray<16, float> quant8_scale = { 16, { 0.005113835446536541, 0.0024706330150365829, 0.0034248502925038338, 0.002934556920081377, 0.0026745139621198177, 0.00291823735460639, 0.0029760354664176702, 0.0030729451682418585, 0.0033316814806312323, 0.0028416344430297613, 0.0030867650639265776, 0.0027008058968931437, 0.0034771806094795465, 0.0030788821168243885, 0.0024606988299638033, 0.002825290197506547, } };
const TfArray<16, int> quant8_zero = { 16, { 0,0,0,0,0,0,0,0,0,0,0,0,0,0,0,0 } };
const TfLiteAffineQuantization quant8 = { (TfLiteFloatArray*)&quant8_scale, (TfLiteIntArray*)&quant8_zero, 0 };
const ALIGN(8) int8_t tensor_data9[32*1*3*16] = { 
  /* [0][0][][] */ -47,2,-11,64,19,-85,-42,10,72,64,-26,62,54,-24,-5,21, -93,59,12,25,-12,-76,58,23,-10,-62,33,31,60,13,-12,-34, -127,-98,30,43,-71,63,-17,-34,-25,1,14,-68,43,16,-37,2, 
  /* [1][0][][] */ -80,-77,8,52,-57,16,-69,-13,127,49,61,-56,75,7,18,33, -73,79,84,15,-55,120,-7,56,59,57,-63,-47,13,-33,44,36, -90,15,63,105,-6,38,87,50,21,-57,60,107,82,24,-31,-1, 
  /* [2][0][][] */ -127,-47,30,-21,48,-7,37,-36,-16,-33,-17,34,52,27,31,11, -22,-40,29,-12,38,37,34,-76,9,37,23,25,45,-28,17,17, -48,30,-53,20,-44,-33,72,-55,-16,13,-69,-49,34,16,11,38, 
  /* [3][0][][] */ -84,-13,-6,7,-26,34,11,49,-29,33,-10,58,-4,-21,73,21, -73,85,24,30,-53,-15,79,-16,-127,41,-27,-43,15,-1,-9,40, -65,0,-40,28,4,-28,-38,-12,-54,27,63,-24,-34,-4,21,3, 
  /* [4][0][][] */ 36,33,8,-35,-106,28,-68,7,54,46,-70,-71,-30,-93,-106,-68, -25,7,41,-127,-23,-51,-84,-34,-3,-4,-122,-69,-12,-86,-65,-20, -13,86,98,-43,-60,-47,-12,-18,-5,66,6,62,-93,42,-23,-27, 
  /* [5][0][][] */ -5,-88,52,-9,-57,-104,16,-94,-55,17,-6,-91,-101,21,-83,-9, -52,-22,41,-16,-71,-12,-62,127,-69,-48,-47,-126,-46,7,26,23, -54,71,41,66,-5,29,89,-25,-49,-65,0,63,11,-1,-18,-45, 
  /* [6][0][][] */ 45,5,-12,-106,41,51,-24,-32,-66,4,35,-27,-42,-22,-73,-52, 63,-76,-30,10,-91,-56,-43,3,-32,-38,42,-67,-14,-61,-127,-93, -8,-68,48,-48,-120,38,-35,-17,-92,-61,-1,57,-60,20,10,-95, 
  /* [7][0][][] */ -127,64,-2,95,66,-67,80,28,-79,-61,-4,-13,73,-48,96,39, -111,73,8,15,29,-25,82,-17,19,47,64,-54,-32,-31,-48,-14, -8,68,20,2,-36,63,2,7,-55,-2,69,-70,37,-74,31,17, 
  /* [8][0][][] */ -35,50,-52,-34,-8,-127,29,45,-10,-7,-58,63,-45,-11,5,-32, 65,34,-4,-12,-14,-88,-29,35,-20,-70,-96,39,-41,49,-53,-60, 16,-37,-36,-23,31,-37,-17,-6,32,-2,-3,32,41,63,-36,22, 
  /* [9][0][][] */ -53,27,1,-127,15,26,-1,46,-31,20,-33,48,-125,27,31,-74, 8,-1,-42,27,-29,-67,24,-115,-19,16,-17,35,-56,-80,29,9, 22,-93,-9,1,-50,14,-16,-73,-106,-20,20,-19,2,1,-108,-56, 
  /* [10][0][][] */ 53,58,-55,-70,70,-127,33,80,6,-52,-88,95,1,61,-62,-85, 24,-23,-11,-43,-69,-57,18,6,-24,-74,-21,18,15,76,-65,-22, 60,54,-63,-75,5,5,-23,-24,63,-31,20,68,-29,71,-16,-42, 
  /* [11][0][][] */ 1,15,-96,11,-31,-23,-69,19,23,-81,26,46,-36,31,-31,-17, 20,39,-40,43,2,-76,-89,15,-80,-17,-6,-2,-127,35,18,-127, -36,13,41,1,20,-30,37,-60,-32,-1,-76,-104,-114,20,-37,86, 
  /* [12][0][][] */ 8,-72,6,40,12,26,25,42,-20,-4,-62,4,-61,-5,67,-51, -8,60,58,-58,50,-65,89,-123,-57,17,-36,-26,22,-50,-68,-69, -80,-79,-72,-58,-8,-11,-75,-42,-36,-90,-104,-63,-75,-127,-64,-6, 
  /* [13][0][][] */ -74,-127,-51,-32,-96,-37,-5,-107,-51,-55,-58,-35,4,-23,-30,25, 15,17,-40,-73,46,-107,-31,36,-34,-28,-93,61,-36,3,22,-44, 23,34,30,20,-41,-83,47,11,-63,14,36,-42,-56,28,34,23, 
  /* [14][0][][] */ 55,62,-107,-64,34,-112,24,-8,-27,-7,-48,24,-64,85,13,-10, 46,15,-65,-3,30,-127,-31,48,14,-18,-35,-8,2,71,22,-70, 82,59,30,-11,11,-16,-20,-29,28,-42,6,-41,22,48,-33,-65, 
  /* [15][0][][] */ 62,-71,-92,-87,-84,-10,21,59,127,66,-73,-90,-72,-41,-95,52, -35,-21,46,49,29,8,-58,77,-33,-55,9,-74,104,43,66,-14, -31,-26,26,86,102,2,85,-56,-87,-26,-59,80,114,-16,-70,-41, 
  /* [16][0][][] */ -42,61,-69,-69,-58,-127,-71,-40,-102,25,-17,-4,-57,65,-81,10, 64,22,-52,-78,39,-87,26,40,-2,34,-110,84,-24,53,-79,-101, 15,15,-9,62,36,-39,-18,37,-115,-14,30,31,-60,-40,-35,8, 
  /* [17][0][][] */ 49,-97,-41,1,-31,-16,-3,-43,-21,104,-64,-70,-63,-43,-5,-24, 85,-52,-83,-36,-100,39,-111,89,15,36,47,-86,-20,-10,-101,2, -43,110,-17,61,127,10,65,-6,84,-67,-102,120,81,30,-67,-28, 
  /* [18][0][][] */ 28,-109,4,-87,-30,48,-82,14,-99,-127,-38,-16,33,50,42,-88, -63,-54,-33,-38,-71,43,-5,31,19,-84,35,-18,-13,-16,22,-65, 48,-71,-55,40,-125,-26,17,-32,18,41,-18,-117,-61,32,47,0, 
  /* [19][0][][] */ -56,3,88,82,13,108,101,-7,-52,31,29,-23,-19,62,-15,127, -29,31,24,3,-46,66,5,17,-24,51,92,-75,70,32,-34,-22, -39,-77,48,72,-61,98,-42,-36,-38,105,78,-36,20,-34,-59,104, 
  /* [20][0][][] */ 27,19,-106,41,-20,-101,-118,109,20,38,12,99,10,46,-69,-87, 13,-57,-48,27,-76,19,-85,-18,-72,-96,-53,33,-35,127,-67,-13, 55,-49,-45,-102,-48,-44,-30,-56,-36,-102,8,-101,-18,18,-85,-7, 
  /* [21][0][][] */ -127,35,86,117,-37,56,109,-90,22,31,-63,57,120,-8,-54,116, -51,-48,-8,-64,60,47,-13,16,-104,35,101,-12,87,-61,51,31, -62,13,53,-20,-83,-59,-100,-33,25,117,-57,-6,2,21,53,2, 
  /* [22][0][][] */ -30,14,47,71,-42,-75,8,-86,13,-25,-68,-9,31,-72,14,-8, -107,45,14,21,-14,-46,89,-81,-43,-16,40,91,127,-70,11,53, -75,-13,18,51,1,-34,-45,19,-95,-44,29,6,-70,-59,-46,-34, 
  /* [23][0][][] */ -127,-16,55,42,-81,34,55,-92,-40,-30,-46,42,52,-7,60,-34, -33,18,-25,44,-64,68,44,-106,20,-34,-11,26,59,42,-51,70, 21,-77,-12,5,-61,-50,-109,-83,-57,-38,-97,-4,-28,24,-106,-41, 
  /* [24][0][][] */ 64,-91,-30,46,-30,67,-9,48,-42,-80,-10,-4,-117,-107,-57,30, 44,13,20,77,69,0,0,-26,-69,27,-99,21,61,-77,-33,-114, -13,-79,-76,-17,-85,-64,-23,22,-127,-24,-63,49,95,-121,-121,-25, 
  /* [25][0][][] */ -76,-40,20,-38,59,-99,-7,-80,-24,-22,-36,5,16,49,2,-73, 17,-8,51,-21,-51,-32,-7,-1,-2,-33,30,41,-69,-62,-58,65, -113,-90,25,-66,22,-127,31,-123,57,-39,-101,-47,49,33,24,-30, 
  /* [26][0][][] */ -26,-32,29,52,13,32,48,-64,73,-19,29,-21,75,-6,8,29, -69,-14,13,9,42,-37,-116,50,-11,16,6,11,1,22,27,-41, 41,-47,-75,-127,-42,47,-41,-18,8,21,43,-56,-70,30,-35,27, 
  /* [27][0][][] */ 45,56,-101,-52,50,-127,-26,84,-24,11,-90,39,-26,79,67,-23, 17,59,4,-63,-33,-102,46,15,-90,86,-7,-69,-40,0,1,-50, 13,14,-9,-74,43,-69,-3,0,-4,-56,-33,1,62,82,12,28, 
  /* [28][0][][] */ -69,-74,58,-127,-45,-54,-110,-5,-22,-73,27,32,1,26,95,18, -41,-102,-25,15,-34,-1,-61,39,-92,-26,37,50,-54,-60,-45,-113, 23,17,-126,-59,53,-43,92,-91,-4,-27,66,-96,30,4,50,-62, 
  /* [29][0][][] */ -59,37,-73,-58,-57,-82,5,-63,-49,10,3,-36,-32,-9,-34,9, -25,-91,49,13,-127,-45,-36,-25,-9,-51,-6,-34,-59,-32,-26,-118, 6,-57,13,-3,-77,77,-14,-6,-61,-46,-93,9,0,-28,28,81, 
  /* [30][0][][] */ 61,-14,67,-63,-19,122,-53,-9,39,-22,63,-56,-45,-85,-45,13, 69,-61,-47,35,65,98,-127,-16,63,74,-28,15,59,-24,-58,57, 26,-18,-38,-44,63,-14,-108,-11,15,54,-6,47,-6,30,29,-39, 
  /* [31][0][][] */ -11,2,-82,-56,-26,-93,14,-11,-52,-120,-41,3,-33,-127,-101,-93, -17,-96,52,119,-112,6,74,17,-81,9,-30,31,49,-45,-33,-15, -17,-44,14,70,-81,-23,-34,91,-8,-38,50,39,-36,13,-126,34, 
};
const TfArray<4, int> tensor_dimension9 = { 4, { 32,1,3,16 } };
const TfArray<32, float> quant9_scale = { 32, { 0.0031514510046690702, 0.0025083094369620085, 0.0034568940754979849, 0.004022201057523489, 0.002474453067407012, 0.0024071494117379189, 0.0023547017481178045, 0.0026464303955435753, 0.0037515719886869192, 0.0025886388029903173, 0.0029668551869690418, 0.0032330676913261414, 0.0037622679956257343, 0.0040908246301114559, 0.0032614276278764009, 0.0022260246332734823, 0.0027912657242268324, 0.0025771243963390589, 0.0021883735898882151, 0.0024698746856302023, 0.0022282835561782122, 0.0024212852586060762, 0.0032030304428189993, 0.0029146275483071804, 0.0025645664427429438, 0.0022566409315913916, 0.0037546576932072639, 0.0027819613460451365, 0.0021558336447924376, 0.0022825561463832855, 0.0032286862842738628, 0.0021423269063234329, } };
const TfArray<32, int> quant9_zero = { 32, { 0,0,0,0,0,0,0,0,0,0,0,0,0,0,0,0,0,0,0,0,0,0,0,0,0,0,0,0,0,0,0,0 } };
const TfLiteAffineQuantization quant9 = { (TfLiteFloatArray*)&quant9_scale, (TfLiteIntArray*)&quant9_zero, 0 };
const ALIGN(8) int8_t tensor_data10[64*1*3*32] = { 
  /* [0][0][][] */ -47,5,-48,-2,21,-25,-78,12,27,-74,-80,18,-20,-96,-98,-105,47,-12,-70,-51,-52,-15,-54,-102,-47,-31,8,-92,-93,95,-74,-51, -30,-97,-40,54,-52,23,-17,-17,-33,-51,-92,-84,44,-35,12,67,45,23,-57,-90,-88,-127,48,31,-5,-67,-111,-85,100,56,-98,5, -80,-60,-56,69,73,-72,-45,-80,54,23,-71,-26,29,38,-98,-74,-64,-85,-40,-26,17,40,36,62,-10,-51,12,-77,-43,96,9,84, 
  /* [1][0][][] */ -22,-73,-58,-45,4,-18,28,-80,-19,-22,-61,14,8,-60,-54,-68,-57,-9,-40,-69,-23,-85,-36,-62,-90,19,-55,-38,16,39,-33,-33, 112,37,78,-40,-29,14,26,21,2,47,-4,47,-23,13,-10,13,24,-15,-39,78,-55,58,91,94,13,9,127,-18,-104,-2,-23,30, 22,20,6,45,30,-27,-17,-22,-37,-36,-37,30,-78,43,-18,-11,-19,-29,33,-64,39,25,103,40,-28,-22,-29,28,-10,37,-11,32, 
  /* [2][0][][] */ -73,20,-41,22,-78,-20,-49,-101,-59,-17,37,-1,-1,-28,-71,-11,-12,19,30,-4,-44,-33,27,-43,-31,43,-75,-77,-41,-70,-25,1, 56,0,-29,-36,-35,30,-76,-84,-29,-55,28,-23,10,8,48,20,-34,11,-60,-63,24,-46,-11,-57,-58,-23,51,-75,17,-16,-80,53, -127,-77,-8,4,23,51,16,-93,-10,7,-40,-98,-66,-78,20,-54,19,6,-37,-54,24,-102,-44,-5,-63,12,-126,-124,-17,36,-40,24, 
  /* [3][0][][] */ -62,-43,46,44,-27,48,21,30,45,-16,47,84,5,52,44,36,3,32,-7,8,-71,35,-7,18,-21,20,-28,-22,-74,-28,-95,-30, -87,5,-13,-1,-75,-27,-67,-9,-65,-15,-51,-63,-127,28,-28,-15,-51,-74,-54,5,22,-31,-50,-3,13,-62,19,-13,-18,16,-99,-37, -45,46,34,18,-21,43,67,-34,-89,34,-23,-22,-9,39,-79,-61,8,-46,-48,19,-97,-20,103,26,-6,-53,-71,8,-17,-8,-25,12, 
  /* [4][0][][] */ -2,19,-9,50,-5,59,-20,0,3,16,-58,65,-28,-51,-49,52,2,-25,-33,23,4,12,-13,-6,-25,-39,-44,-30,12,48,-62,60, 27,-30,53,81,-73,27,-18,-56,-3,31,-37,-22,58,-54,-11,-21,-127,-20,47,-38,-42,-7,-74,-77,-67,12,-64,-51,-39,-41,-9,-27, -54,4,56,-17,-41,-48,66,82,-86,27,-17,-72,-31,13,-68,-59,-14,-36,50,53,-16,72,31,79,-4,57,22,-20,-29,36,-1,-36, 
  /* [5][0][][] */ -74,-25,-109,2,-8,55,-32,-35,54,-19,-13,-65,51,48,-18,39,-29,-105,51,-5,-60,-108,11,35,15,-33,-15,-30,6,-63,-64,-86, -123,-80,-82,-27,-58,-22,-94,-127,23,7,-27,12,-72,-23,-21,-76,-45,-46,27,-29,-51,-5,37,12,-45,-72,84,-63,16,-11,26,-16, 24,-97,8,20,-73,12,36,-43,-39,-2,-44,-16,22,-11,-40,-16,22,-83,4,-72,-75,-68,-72,32,-44,-39,-71,14,-12,-64,-107,-88, 
  /* [6][0][][] */ -104,-86,-108,-1,54,24,-53,-19,50,31,-37,-109,1,-105,-73,-74,75,-92,5,41,4,-35,-11,54,62,46,-83,-42,-37,-95,12,-93, 71,60,-58,-93,-97,-65,17,48,-109,24,-54,38,-8,-52,-15,-31,-45,26,-2,-83,-45,-80,-79,-64,29,36,-74,22,30,-58,-123,-14, -77,-17,53,61,79,-112,-59,42,-25,-127,-116,8,-69,2,52,1,69,-68,-116,-13,75,15,27,-13,8,-122,12,-117,40,29,4,-102, 
  /* [7][0][][] */ -17,-22,-61,9,23,17,-15,4,23,1,7,32,-32,7,-1,-23,15,-25,27,-52,38,-29,24,-30,-15,24,32,36,13,-38,72,39, 20,-127,-41,20,-49,-67,31,-18,42,-1,-12,51,-27,9,63,-51,3,-49,1,-35,-22,-44,-28,1,15,43,40,37,5,10,34,25, -82,-90,-11,-39,61,4,-14,-6,-24,-55,13,33,29,-2,-11,16,21,31,0,19,36,-37,-37,-69,-30,-25,-63,26,2,-29,20,11, 
  /* [8][0][][] */ -31,-16,-24,-7,-2,27,20,48,-122,-72,-74,-35,66,-32,-122,-44,-86,-5,27,39,28,-62,-127,-91,28,-49,81,-12,-36,0,16,-36, -32,46,-4,4,-37,-50,-7,-65,53,-7,12,-55,-51,24,-10,-25,53,36,2,-66,2,-6,36,-1,45,-32,0,25,23,5,-31,7, 78,9,-3,21,-56,21,7,-27,26,9,49,37,-96,3,-8,-16,33,14,-8,-33,29,-25,-21,-14,-56,-9,50,-16,-49,-9,-58,0, 
  /* [9][0][][] */ 21,-39,-112,49,-9,29,36,2,63,-3,55,61,-46,100,22,-51,71,-121,23,-5,76,-99,-12,18,33,44,-107,1,0,-70,-60,22, -9,-71,-56,-33,49,-49,-18,27,-20,-17,-52,-46,-18,-57,-35,-60,-2,-88,46,-2,-3,18,-34,-12,-32,-22,-68,-70,-37,-5,-59,-24, -38,10,-65,-32,119,127,-14,-68,-38,5,8,-105,-32,22,-29,31,9,89,7,-25,-61,-35,3,-27,-13,-17,6,-1,7,23,-29,57, 
  /* [10][0][][] */ -21,-39,-53,-68,9,-45,29,15,36,12,-59,-35,28,-62,40,38,-14,-85,41,-61,-40,6,22,27,-4,-10,127,19,-14,26,-65,51, -21,27,-59,-70,-8,-64,-46,-47,-16,19,-42,-2,25,-19,-27,-56,-1,-26,-38,-31,-44,-37,-42,29,-25,41,31,11,29,-16,-11,-23, 12,1,-54,53,23,2,-70,-1,-21,44,-50,-32,-23,-2,-26,-5,18,11,40,-46,-4,-21,-53,18,12,-44,-44,-27,25,4,-23,-64, 
  /* [11][0][][] */ -20,22,-16,123,-38,-44,-91,1,104,-15,92,76,68,64,46,-49,73,-31,26,21,54,-78,-33,-61,99,48,-51,100,-8,10,-97,15, 40,-64,45,-91,76,-26,-33,9,7,12,-3,-45,-3,-25,-65,-68,90,46,60,41,9,46,7,52,-33,-50,-44,-43,-10,-29,-100,-9, -46,-31,-21,-34,104,68,12,-87,-13,-28,63,-127,-40,-18,27,63,-53,10,13,-55,-81,-1,68,86,49,-22,-3,-1,-36,-2,-7,-28, 
  /* [12][0][][] */ 41,45,-17,77,29,-32,25,-40,-13,-63,-62,-56,-12,-44,-54,-41,-60,-27,-25,-35,3,44,17,2,53,-21,-18,12,2,25,-50,47, 41,62,4,-60,-39,50,-46,-18,-67,-29,2,-79,-28,-74,-94,15,-29,21,30,-63,31,-28,-27,50,-31,-16,-127,-79,22,30,-66,93, -10,17,55,99,-47,32,4,70,-64,-3,-2,-27,60,29,-13,8,-8,-104,19,72,-67,68,23,81,58,13,27,-13,-43,-99,-66,-54, 
  /* [13][0][][] */ 17,16,29,48,-39,58,-31,-5,-7,-11,-75,25,-69,-25,-55,-9,-11,48,-33,-43,5,13,26,19,32,-31,15,25,-27,-44,-3,-2, -6,23,40,-33,-38,24,-4,29,-53,-13,-9,18,36,39,-22,-10,21,-2,10,-30,-42,-7,38,-51,-36,34,-70,-15,-22,-30,-53,41, 75,7,67,79,-3,2,-29,86,-1,45,-54,-48,68,7,-90,23,-57,-56,11,-4,-15,41,127,63,11,4,27,11,7,31,-67,-28, 
  /* [14][0][][] */ 18,-37,5,-63,61,12,-3,-35,-83,-56,0,-72,-88,-3,-17,-59,0,-37,-37,-27,-27,-127,-72,13,67,-76,-42,-94,20,-8,10,5, 93,-104,-72,-33,-20,-53,34,-15,-34,-60,51,65,-14,35,29,-62,9,-35,-57,-125,33,-48,0,-26,24,29,-81,-42,0,13,40,3, -5,-99,-53,-9,8,28,11,-13,-6,-6,29,74,45,14,-41,27,26,-51,13,62,31,-19,-56,-96,-61,18,43,-17,2,6,-62,32, 
  /* [15][0][][] */ 19,-40,-4,60,-19,-19,-46,-93,61,100,57,49,12,96,94,46,111,-64,-20,-112,7,-26,52,-17,-10,-37,-35,77,-39,-45,-43,63, 71,-42,-53,-74,46,47,50,0,125,-45,10,74,13,2,58,6,62,-18,-1,-1,3,-16,29,0,-2,54,-17,76,-61,2,-49,-28, 8,-25,67,-72,127,-28,53,-70,47,-5,109,-77,-10,29,44,67,46,72,-7,-94,-9,-71,86,104,-11,38,46,20,-21,14,-19,29, 
  /* [16][0][][] */ -48,-99,-63,8,23,-52,15,-8,-60,-42,-11,-35,50,-41,-24,-19,-59,44,-22,-98,4,-31,-21,13,40,-54,-102,-2,30,-24,12,39, 32,-4,-110,0,-26,5,-15,-8,-76,-43,-21,-19,-51,-107,-45,-102,-58,15,-72,-49,-11,-63,-127,36,-33,-51,-40,-68,68,-42,-88,-3, -7,58,-57,17,43,0,-25,-47,2,-55,-66,-11,-14,-105,-48,37,13,32,44,-2,1,-53,55,-38,-21,-67,42,-122,-86,-22,-42,38, 
  /* [17][0][][] */ -20,-67,-33,-2,-4,-24,23,-42,-46,-62,-74,-44,32,-68,-41,-79,-30,33,-17,-50,14,-48,-38,-13,7,-26,-36,-50,-34,-30,-46,-9, -22,64,-1,-14,41,29,0,1,-88,-21,-84,-24,5,-95,-59,50,21,127,-1,43,56,-5,-45,62,8,4,8,-60,-59,9,-20,25, 28,5,-44,18,-41,-35,-9,-24,35,-28,61,31,-32,39,2,27,-33,34,5,12,65,33,58,-13,63,27,24,6,38,1,19,-13, 
  /* [18][0][][] */ 28,-6,-92,20,-33,-24,-4,29,-9,24,-58,39,65,-59,-127,13,-104,52,57,-83,-33,0,-36,-30,-41,6,-126,-19,-34,-77,-33,33, 9,54,-6,-13,-8,-39,-21,-72,-75,-38,-48,-56,-50,7,-61,-20,-58,61,-14,11,-40,61,34,37,21,19,45,-38,-12,14,62,11, -3,32,14,45,-6,-50,-39,-2,-27,42,80,-26,31,-12,57,47,-43,3,-29,17,-10,-67,65,46,66,41,-77,-3,-35,-1,50,24, 
  /* [19][0][][] */ 38,19,-78,-23,3,-43,-24,0,-41,-22,-28,-21,-16,-25,-11,-31,-31,45,42,-60,-37,-4,-6,50,-35,8,28,-46,-23,17,-17,0, 3,29,-79,-54,-65,-28,-19,3,22,19,31,-29,-127,-94,-56,9,-96,-43,29,-52,29,-54,52,-2,-8,-35,-12,-35,-20,-31,29,-24, -5,-86,19,40,-51,-13,24,-35,-5,-1,-45,-11,-16,-6,2,23,59,-67,48,-40,7,65,82,52,-48,-38,-102,-34,-18,15,4,-79, 
  /* [20][0][][] */ 36,-93,-87,-51,67,-8,-77,-43,-67,53,-18,46,37,-10,-57,-57,0,-3,-82,-87,-83,-36,-25,-59,50,-81,-109,-30,5,-40,-46,-48, 48,-74,-73,-45,-20,45,-91,-64,22,-17,-117,3,-99,-7,-73,2,-127,-18,-83,45,35,-44,-100,32,6,-63,-64,-16,-102,-39,24,39, -103,-31,-88,-36,-48,-17,68,5,16,-79,-63,-42,50,66,-24,-19,-27,34,-19,39,31,49,31,-34,51,-37,-58,-70,-104,-81,-8,13, 
  /* [21][0][][] */ 22,87,4,-23,-1,66,63,30,-90,56,-62,57,-45,51,8,-84,43,35,23,-61,-18,-43,-69,27,-5,17,-96,5,-8,64,-84,43, 21,-33,81,50,-26,36,6,10,-39,13,-8,49,67,10,1,-55,-73,-33,-5,41,-72,-60,79,58,59,-26,-31,0,48,-69,13,56, 37,-17,43,-53,-53,-9,-46,-66,-85,35,-33,-24,17,-52,2,-47,-127,-72,-4,-8,29,-62,99,-11,88,40,-62,-27,24,53,-75,-31, 
  /* [22][0][][] */ -24,26,13,56,41,-45,17,-118,-45,5,-13,14,56,-29,13,-100,36,14,-80,-27,-83,-59,53,-52,1,58,-123,-87,-13,-51,17,67, 14,-124,-114,25,46,-62,56,-86,30,83,-36,0,-84,-37,61,-95,-6,-13,-14,-77,67,18,-16,56,-98,7,-35,-28,-87,-84,-72,11, -38,-119,-78,1,15,27,67,-54,59,-13,71,44,-95,-2,-15,-15,-79,-98,-12,-127,-34,-124,-101,-75,38,60,27,-36,-20,-6,21,-45, 
  /* [23][0][][] */ -61,2,-71,-19,33,-50,-17,-70,30,-13,-42,-21,16,-127,-92,-90,-73,-56,-87,-72,-26,48,-53,-34,-45,-36,-13,-65,-25,-59,23,51, 39,-62,-25,-46,-3,-5,25,23,-125,-66,-26,-66,-91,-47,-92,38,-20,108,45,-81,-69,-105,13,-19,64,-79,-16,-71,-65,-12,7,-13, 33,8,-63,-85,-31,-61,5,-50,-59,-34,68,35,7,54,-25,-4,0,46,36,47,31,-58,10,-83,-10,-60,54,24,53,7,39,47, 
  /* [24][0][][] */ -72,-79,-65,21,60,-91,-60,-30,24,-43,-64,-38,65,67,105,9,-17,22,44,-41,47,35,15,36,55,-30,-91,6,-101,73,-95,-115, -80,95,-5,-71,-90,-71,41,-13,-56,47,-72,8,54,-91,-119,-67,-2,-56,-37,-115,24,-23,-37,-70,10,-29,6,-102,-71,-47,-103,-47, -19,-127,33,-22,10,11,8,28,0,-113,27,-86,-119,-20,-40,17,18,30,41,26,-53,-45,-19,42,8,-55,-30,-49,-36,-63,-44,22, 
  /* [25][0][][] */ 37,-70,-68,-66,-60,-87,69,-36,52,12,27,-31,60,4,68,37,-70,4,57,-3,-75,-14,43,-32,-90,55,9,-88,-84,-5,34,58, -36,50,-73,70,-73,-127,-114,-116,25,57,-78,-102,-32,45,-27,48,33,-36,-98,-25,12,35,-36,34,-87,28,2,-101,-39,50,-9,-66, -104,6,-48,-89,-22,-79,14,37,-11,-27,-77,-62,-28,-111,-80,-87,30,-113,-76,-113,6,-116,2,-11,-55,-60,-65,-85,55,-42,9,76, 
  /* [26][0][][] */ 30,-90,24,0,41,17,-9,-102,-111,-121,52,-4,59,3,-29,-17,-42,-70,-112,50,59,-52,-111,51,78,-35,-78,4,-2,-10,-36,-118, 5,55,51,29,-125,-35,-11,8,49,-53,-9,-19,-74,-11,-59,36,-76,-75,-70,-109,63,-5,-33,-127,3,-93,-30,-29,51,-53,-90,-97, 5,-71,-2,-53,-59,-63,-2,-104,-104,2,-10,-29,64,-25,-109,84,75,27,-46,49,-64,15,-14,62,108,49,-4,-7,25,-70,-38,-25, 
  /* [27][0][][] */ -84,-65,-81,-89,56,-58,-3,-127,17,-45,37,-2,-42,-8,67,-47,-8,-16,3,-44,51,15,19,1,45,51,-8,-25,-56,-22,-33,38, -113,-44,-25,25,67,-48,-22,-46,-59,37,78,35,-77,46,-41,-79,95,-108,53,-76,42,-91,42,-21,43,-55,-28,-67,-29,25,-94,24, -14,-43,-6,-18,12,61,44,-117,61,-48,47,72,-22,-26,-37,10,-23,-39,5,-69,2,-68,-75,-108,79,64,-58,17,16,-29,-13,-24, 
  /* [28][0][][] */ 10,23,-59,-58,8,58,-88,7,41,-73,-118,7,-36,-37,-25,-30,57,-76,-1,-77,-45,3,-75,-33,2,-83,9,-64,-51,-11,-84,-98, -39,7,49,41,18,49,-32,-120,-83,21,-5,-36,4,48,-10,37,6,-21,-35,-127,-13,-71,-13,22,37,-32,-13,22,-86,-70,27,-75, -77,-59,-18,-44,-90,-41,-41,21,-91,-6,-66,-37,-14,-35,36,-62,-40,-24,6,-29,-95,-78,-86,-72,-48,25,-1,1,34,-60,-21,45, 
  /* [29][0][][] */ -56,-47,-46,7,0,120,37,7,-66,43,-99,-40,1,-64,-76,-65,-65,-52,-30,-29,44,-75,-59,-51,14,-60,-54,-125,0,-31,-106,2, -30,31,-5,-45,-54,127,18,14,-94,6,-71,-3,-86,27,-70,2,-69,-22,31,-25,-45,25,63,24,61,-36,-14,-35,-7,10,-89,25, 16,-2,-40,33,-32,37,24,20,-71,-34,-92,-57,-68,-5,-66,-30,-73,-91,-12,13,-79,-69,-22,50,-25,-19,-31,-43,-27,-40,-79,24, 
  /* [30][0][][] */ -18,-18,-92,-62,24,-74,-5,65,-60,54,-107,32,64,-46,50,-25,9,13,-47,-42,-81,-59,34,-21,-69,57,-5,31,72,2,-23,-69, -47,-116,-12,48,-54,17,34,-28,-56,-63,-30,-31,-102,-3,-23,-92,-25,-89,-87,-99,-5,-127,-11,-28,-119,-45,-62,44,30,-36,-45,-7, -48,-43,-2,-53,-75,75,-76,-62,13,32,-27,-18,-78,-109,-55,39,-33,40,-115,-38,58,-9,-54,-107,-64,-82,29,-125,-25,19,3,50, 
  /* [31][0][][] */ -43,16,4,19,-15,-84,44,-37,50,43,61,-1,16,17,-2,33,4,-68,36,-127,12,-33,32,-20,55,34,-41,-7,14,-81,-36,-29, 26,-36,8,62,28,-91,1,-77,42,21,40,117,-110,85,108,-64,124,-49,-55,-83,45,-59,-25,-6,-42,-12,33,56,-7,-67,-8,-72, -126,-82,14,-31,42,-9,48,49,-25,-63,22,-35,42,-15,21,-15,-42,50,-18,2,17,-42,11,-35,72,0,-28,23,-40,35,0,-4, 
  /* [32][0][][] */ 20,24,-16,24,-28,25,66,-36,18,-22,-73,73,44,40,-48,-20,1,-21,15,-3,29,-9,-13,37,-25,55,-31,-3,9,48,-14,19, -25,4,41,-56,7,-29,-10,45,-46,-35,-28,-19,49,-32,-46,-73,-32,8,-36,-34,-18,32,-20,51,16,-34,-8,-7,-2,-4,-127,14, -16,-5,32,-46,43,-30,35,-50,-53,-40,-21,37,-24,39,-31,40,23,9,-4,-95,-6,-65,-26,-60,7,32,-20,-19,17,-66,-7,-12, 
  /* [33][0][][] */ 12,71,-20,2,40,65,40,-55,-88,-60,-6,10,77,-54,-20,-39,39,-57,35,-25,-25,51,28,37,-1,-27,-28,-32,-125,118,-77,25, 1,39,15,-51,47,-86,-5,-24,51,-60,-62,-77,127,-36,5,-2,-28,17,14,49,-18,-45,-86,-98,49,-83,-95,58,-44,-45,-94,1, 42,-71,-79,-38,-110,-26,-37,70,-103,-38,-81,24,59,-29,-108,-107,3,-50,-77,-34,-65,4,30,32,-59,60,0,-114,-105,19,-26,-41, 
  /* [34][0][][] */ 9,-119,-22,-19,-99,11,-69,-62,34,61,-23,-95,50,13,12,-85,-76,-43,22,-127,31,2,-53,-71,-64,51,49,-30,31,0,-6,-50, -7,10,-123,-78,54,14,46,-100,38,-96,-22,54,-57,-57,-95,-64,22,60,7,-38,-44,-24,18,-73,13,35,23,59,9,-73,8,-100, -41,-45,-31,-36,47,-24,-69,-74,12,29,-81,-28,-61,-66,48,35,49,0,30,5,22,-95,11,60,-64,-34,6,-97,30,-56,-11,-85, 
  /* [35][0][][] */ -68,43,1,-40,8,39,28,16,-44,-30,-66,30,15,-66,-32,-70,3,-82,57,-26,-71,-47,-58,-19,47,32,-45,-26,-82,-28,-66,43, 0,-74,-42,-45,63,29,-13,14,-80,42,13,-45,-59,21,44,-15,-9,-45,20,23,10,-94,-54,-79,-30,3,-40,76,-48,-76,-66,-27, -60,-69,-49,29,-48,-5,-92,0,-45,70,-2,-34,-80,-19,-9,-54,-8,-18,-34,-64,53,-69,-67,6,11,-13,-27,32,-8,-2,-127,49, 
  /* [36][0][][] */ 54,98,35,-29,31,-2,44,-27,-87,-69,-51,42,62,-43,18,22,-63,28,-8,63,-69,86,105,55,-55,-23,6,-30,12,54,21,95, -29,54,22,90,-60,-86,-11,21,-59,-25,-36,-8,81,-46,32,23,-63,-91,48,-44,-32,-19,74,39,-49,6,-100,96,23,-50,-5,-43, 68,-21,81,37,-26,6,60,47,-80,72,-92,-16,3,7,-21,9,-18,-65,41,-18,21,-8,79,-53,-22,55,-122,8,52,48,-127,-36, 
  /* [37][0][][] */ -2,-109,8,8,-15,12,-16,-40,-62,-2,-57,-85,3,-26,-53,-1,-36,85,-41,-20,-47,-94,14,-6,-28,-35,-45,-75,-63,-92,-106,0, 87,97,22,22,33,-15,-7,-10,-70,-37,-97,-4,61,-65,-87,64,-54,79,3,-27,40,47,13,50,-7,49,52,-96,-71,-34,-30,3, 35,-24,22,116,-48,-15,32,-3,31,-1,85,11,-14,57,-18,39,21,51,-52,-10,127,46,-8,-52,101,-41,-26,81,-25,-33,39,15, 
  /* [38][0][][] */ -66,-12,-90,56,8,-2,27,-15,18,-27,80,33,-25,-7,60,-99,45,-74,-9,-45,-39,-31,4,-43,31,28,-33,-71,-8,-43,-25,21, -58,-107,8,-76,20,-61,21,-14,-13,37,-9,84,-75,-60,-44,-20,0,-69,23,-74,24,-36,-75,-72,-56,9,-95,-17,-31,36,-81,-24, -6,-16,-91,22,127,28,-1,-34,-32,-10,4,-47,-5,48,-14,-3,-65,37,-62,-107,-66,9,-5,-46,2,-14,15,-14,54,-6,40,27, 
  /* [39][0][][] */ 65,1,-62,-105,58,30,-68,20,-71,-64,-9,-108,26,50,-52,-72,-55,-18,-21,34,-30,-63,65,-30,-45,4,-105,-36,-88,4,0,11, 39,2,-23,-112,-8,-74,-58,-80,-13,-32,-58,-62,4,-47,19,-89,12,-127,-27,30,44,-97,-2,-73,35,-81,49,-30,-7,56,-100,7, -48,-45,-39,-53,-28,42,58,27,2,15,39,-71,3,51,57,-9,-32,37,-31,-4,-33,-67,-63,72,-44,-62,-38,-97,52,84,51,-24, 
  /* [40][0][][] */ 24,-19,-127,-31,2,-71,-46,-51,-99,-44,-64,21,39,-1,-100,-51,8,-86,-45,9,3,-34,-127,-48,-33,17,-28,-64,-19,1,-55,-77, -38,-5,-67,42,11,-38,-23,-50,50,10,27,1,-54,57,9,7,47,-5,-33,-35,60,-60,-24,40,-2,-24,-15,-42,19,-32,12,34, 54,-66,-47,-33,66,6,-45,-56,67,41,18,52,-23,-65,43,-26,41,-18,-12,-18,50,7,0,7,-36,14,36,-66,2,-30,-5,18, 
  /* [41][0][][] */ 22,-51,-7,1,64,-17,28,-65,-20,9,5,44,-108,-61,34,-15,71,-9,51,7,-6,-7,-43,-78,4,32,-18,-6,-41,-15,-78,22, -40,53,33,-25,53,38,54,-63,35,-22,50,-60,17,29,41,39,-38,54,21,-69,44,-41,53,40,-52,-33,41,-53,14,43,58,10, 32,-77,-4,-59,-14,18,-23,19,82,-33,101,127,-76,-52,97,-87,21,4,57,-61,112,-54,-49,88,38,3,27,-3,-12,12,-90,22, 
  /* [42][0][][] */ 51,4,-54,-18,-11,37,4,-25,-20,-60,-72,-66,-6,-57,-72,15,-73,68,-59,-19,-53,-37,-127,-2,21,-27,-100,-7,-34,-46,-11,23, 11,70,-42,-39,-2,52,-37,20,-33,-29,-61,-16,35,-1,-8,7,-27,115,16,-3,21,-15,4,-92,-82,-12,43,-51,-34,34,39,35, 19,59,-54,28,2,-64,-30,17,36,18,97,108,-108,21,32,46,38,-35,-6,6,99,-39,11,-4,80,30,21,83,-10,25,-53,-27, 
  /* [43][0][][] */ -37,-45,5,-95,-50,-64,-26,-42,-46,-24,-8,-85,-43,-62,-25,-6,-7,33,46,-11,-15,-22,-66,125,64,-21,-56,-29,25,-34,68,-42, -100,-19,-7,-40,48,-68,-11,-81,-112,-50,-57,-9,-28,6,-16,27,-30,76,3,26,-41,15,-106,-113,39,-66,17,-18,10,-6,46,15, -48,0,-39,-17,3,-15,-6,-54,-9,-8,3,-12,-73,-45,-13,-72,8,-38,-50,-51,22,-55,3,-59,0,-54,-127,12,-27,55,-106,24, 
  /* [44][0][][] */ -42,-118,21,-9,-18,23,-26,-53,51,73,9,-21,40,-72,77,-67,-41,-53,29,-127,-30,-68,-64,-83,-27,-45,35,31,53,-64,30,12, -79,-2,53,-8,107,-95,42,-65,-98,37,-5,-45,3,28,-10,-59,-37,-82,9,25,-51,-81,-14,45,2,-20,27,-1,-19,-59,-32,-46, -81,-50,9,-18,55,-71,-66,12,-112,-1,32,13,-55,31,-22,51,8,24,-95,-57,5,-52,-48,-56,-5,2,-46,37,19,-2,32,4, 
  /* [45][0][][] */ 8,27,53,18,-12,-9,12,-50,-67,2,-115,-14,35,40,-37,29,-29,-6,-32,-57,-45,-111,-1,127,-67,-32,-15,-94,12,2,-89,25, 36,-12,71,-22,18,-10,9,-11,-23,29,-127,12,-51,-69,-100,-4,-107,2,-7,47,-103,64,37,56,-67,-39,124,-38,-67,-35,-66,26, -48,-62,-80,-20,-47,-13,36,-31,29,-41,-42,-3,88,67,-35,-5,45,36,2,-2,31,27,28,-59,-18,26,-29,11,-30,-46,-5,-53, 
  /* [46][0][][] */ 52,16,-61,-13,27,-9,38,-84,54,13,68,-12,3,90,-15,-10,50,28,-36,-113,-4,-49,-9,83,-3,28,-17,25,-41,12,33,-2, 47,-42,-43,8,-60,1,44,16,6,-8,34,68,-127,-12,34,-36,57,-16,19,-23,50,11,-59,55,40,29,27,-24,-14,-57,-95,-3, -73,-22,16,-39,21,21,-35,-31,-32,-56,-8,-28,-1,12,16,28,17,13,42,-55,64,6,-32,4,-8,12,17,-64,-30,14,22,7, 
  /* [47][0][][] */ -13,67,-5,47,-65,8,-28,27,-102,-57,-74,42,38,-18,-90,29,-120,81,45,-17,-60,47,77,-18,12,-54,30,-45,-109,13,-39,-40, -1,-29,-49,-66,-94,34,30,19,-57,48,-57,-93,104,-33,-48,-73,-83,40,-73,-72,-20,34,74,55,38,47,-73,48,15,-30,-120,94, -41,5,84,68,-52,85,-53,-11,-3,52,-86,17,1,-44,36,127,56,20,28,56,-11,5,13,-67,-50,-29,-94,23,17,66,-48,60, 
  /* [48][0][][] */ 12,40,1,39,17,-17,-38,-50,-63,-46,-34,92,92,6,3,-27,-36,12,46,-53,-26,8,-7,51,23,-51,18,-60,-29,9,-81,13, 76,50,54,9,-14,61,25,13,-127,21,-115,-11,110,-58,-59,6,-61,21,-31,-11,-2,-17,35,-16,-11,33,-21,3,-51,52,-54,50, -19,-5,-22,-13,12,8,-6,31,3,-43,-42,-27,-1,36,-58,20,-34,-9,23,29,-51,-8,46,15,-2,53,-35,-24,-14,-27,-63,-8, 
  /* [49][0][][] */ -66,-17,-93,18,55,-98,-93,47,-55,-9,-55,-29,-39,-110,-34,-16,54,-105,18,-61,-42,46,-71,-79,17,-60,-61,-74,-91,2,12,12, 57,-70,-102,-15,11,-17,-26,-47,-16,-65,-13,31,41,-13,14,-15,-86,-83,45,4,20,-82,20,82,-54,-92,-95,-52,-96,-52,-72,-58, 54,-127,-2,-48,-11,42,28,26,-80,-76,6,-71,-15,20,-38,28,-54,-67,-30,-14,37,5,-89,16,-13,-104,-78,-6,16,-47,23,-25, 
  /* [50][0][][] */ -55,-120,-55,-15,-33,-16,8,-24,52,10,-65,-5,-18,-42,-35,-121,-19,-121,29,-94,17,-35,2,102,58,-10,-80,6,-59,2,-60,-19, 10,-11,50,45,-14,-23,9,-75,40,76,90,-37,47,41,20,-65,38,-102,-59,-103,-10,-19,33,68,0,-37,-70,24,52,14,-127,-2, 25,-49,53,-17,-18,-54,-35,-43,67,45,42,-7,-22,-26,34,38,50,-39,17,39,2,15,20,-29,-39,-58,8,23,1,-22,-74,-74, 
  /* [51][0][][] */ 64,-66,-18,39,21,22,33,26,-25,-26,-7,19,-11,50,-57,-127,33,-24,-16,-42,-35,-41,-21,21,-50,42,-55,21,-51,-28,-100,-30, -31,-3,-9,3,-30,-94,-59,-100,51,57,48,19,-9,64,18,26,58,-73,-13,-4,49,-53,28,59,52,8,-71,63,21,-34,-54,38, 47,2,6,-52,14,51,52,4,-20,0,21,-11,9,-33,9,2,-1,13,35,1,47,-29,15,4,0,-8,29,6,23,-32,-37,31, 
  /* [52][0][][] */ 62,48,-118,-31,0,-56,-17,-2,10,-41,6,-67,19,-89,2,32,27,-9,-71,55,43,-50,56,-91,-36,28,-33,-23,18,19,-91,49, -104,27,-19,22,-3,-93,4,-27,10,23,-21,-34,-33,-95,-127,-56,-83,-36,-57,-76,-94,-56,-45,-58,-52,-45,-73,53,-100,-33,-79,26, -40,-30,65,-103,17,-36,-35,-61,9,41,-15,11,41,8,-13,-73,-49,-82,-34,-12,40,-42,63,-61,39,-29,99,9,-36,13,-63,-72, 
  /* [53][0][][] */ 72,10,42,-23,56,6,-20,48,-29,27,32,20,7,16,-70,-70,-24,-81,1,-6,-41,45,-27,-4,-52,12,27,-48,12,-6,-34,-27, -127,-23,-104,-56,109,-31,-6,-104,17,-8,6,68,-30,-11,-111,49,-5,76,-31,-39,-51,-51,23,-15,-52,55,-47,-63,-30,-36,62,-17, 85,-100,-106,-25,-61,-55,-6,-59,93,-51,-19,59,11,-54,85,60,-9,41,30,-103,59,-65,6,3,-65,52,18,-50,8,53,-62,-38, 
  /* [54][0][][] */ -81,-106,-113,15,30,-43,-57,-101,-45,7,15,-21,-3,-64,-101,-82,-95,-55,27,-76,-3,-105,8,-59,7,-60,-127,-85,25,-62,-85,-104, -68,-34,-71,-24,-14,-74,5,-53,75,-1,80,41,18,92,76,-46,81,-71,-24,-100,-22,-55,3,-53,42,-9,-84,57,-16,6,32,34, 46,-56,-22,-63,-5,-93,-4,21,17,-6,-11,60,98,-58,62,-62,58,23,38,38,52,23,-35,-66,-45,38,-25,-29,-52,-3,-25,25, 
  /* [55][0][][] */ 0,-89,-78,-32,-16,26,-4,-67,-30,-20,52,-14,-127,-42,2,-1,-40,85,24,-107,30,41,-29,30,-39,-41,-5,5,-60,-29,-11,-75, -21,-59,-45,-48,-11,18,-14,-108,3,6,23,-15,-10,5,31,-12,7,-15,2,-18,85,11,-30,3,-25,13,10,-34,18,-97,74,11, 37,-64,-67,-53,-8,-62,-4,-15,-79,2,-59,49,30,-20,-56,-38,-75,43,10,-21,-81,17,-29,3,16,44,2,-12,-2,18,-11,-11, 
  /* [56][0][][] */ 100,-3,-64,-19,-14,-78,-35,-34,-59,55,-31,41,74,-30,-76,31,53,58,55,42,-5,26,-101,-66,-58,15,-36,-32,-71,-53,-31,-52, -52,-74,-60,56,-80,-83,48,20,-82,5,-12,-119,-46,28,7,-42,-5,-67,-60,57,-29,-56,-28,-73,82,-21,5,25,43,-57,-79,-34, -47,-79,-31,-113,-58,-5,40,44,-99,25,27,-46,32,-21,-125,14,36,-101,19,33,-13,-46,16,-54,-114,-34,-127,-116,56,-66,-37,3, 
  /* [57][0][][] */ -66,-33,14,-83,33,34,-4,-1,-39,47,-65,-108,-101,0,-53,-19,-12,-92,11,-74,-55,-30,6,23,-43,-54,-16,-86,-33,27,-102,-15, -127,30,-6,-66,-51,-43,-17,-2,20,-72,-100,-90,-72,-86,-48,-11,22,11,-82,-50,22,-60,-27,-46,7,57,24,-85,-52,-47,18,12, -68,-1,-27,-6,-44,-22,-89,-69,-24,83,16,13,-91,5,63,-61,-2,-9,-65,-35,48,-53,-10,-62,-54,26,-88,35,-52,-57,76,9, 
  /* [58][0][][] */ 45,-85,13,27,-5,4,59,15,-5,73,-97,-66,-8,-102,2,43,-97,33,23,10,0,-127,-15,19,-65,10,-72,87,-91,13,25,-90, 84,-101,-78,54,-62,31,-25,-110,-117,71,-40,-13,49,-29,-75,-84,29,61,-32,-25,-63,-83,-68,94,14,-118,-76,-24,-7,38,-39,-99, -44,20,86,-44,65,-67,-93,62,46,-86,-20,-74,-20,-118,35,-80,-8,-19,-88,-10,66,-105,84,49,-43,22,24,42,-43,-40,-98,25, 
  /* [59][0][][] */ -41,-118,16,-99,-62,63,-125,-46,-123,-116,-83,-90,115,-48,41,-104,6,21,62,-86,-2,-80,42,-57,-111,13,-45,-32,62,-3,-64,-55, -53,-93,-10,38,-90,-100,64,57,-37,0,-26,57,-18,-110,-26,10,69,-50,39,77,-17,-72,-7,34,111,4,30,-20,-84,110,-21,-6, -9,75,-112,-70,43,-117,-85,-50,70,-40,-41,14,-2,-94,-108,-80,-127,34,-11,-46,82,-25,47,-21,-100,59,-77,-112,-121,-17,-112,-88, 
  /* [60][0][][] */ -38,-16,-8,7,20,29,1,-10,-14,-29,-10,4,16,-25,-23,-12,-30,37,-10,8,-20,-57,28,-14,55,-9,-14,-2,-2,-20,-16,-19, 32,-8,5,24,-14,-14,-7,-3,0,-10,-23,-35,127,-14,-47,-24,-46,-27,2,-35,-56,-23,68,-13,92,-14,-30,-32,-11,1,-19,-28, 13,2,7,7,-9,-3,-14,10,-10,15,-6,1,9,4,-1,1,-11,7,14,-6,-28,-1,-25,-2,-28,-11,29,-14,-25,-11,-2,-23, 
  /* [61][0][][] */ 13,-21,4,-32,4,-78,-81,-26,-16,-115,-107,26,86,-125,-88,67,-116,71,47,-96,44,52,-92,-74,-44,52,-22,55,-80,69,-10,64, 65,-66,-20,18,-71,15,-37,-51,-91,-61,15,34,87,-44,-104,-12,-14,31,-86,30,-93,7,24,-62,74,65,-87,-24,-94,16,-127,-119, -17,-72,23,-87,76,35,84,58,-83,-75,-34,-86,-104,-42,39,75,-59,117,74,-99,-63,-3,-97,-92,-24,-31,-50,31,29,-45,54,49, 
  /* [62][0][][] */ 41,27,35,74,-69,11,63,-58,50,16,33,-9,-2,39,13,-26,52,-14,-63,-71,-48,-79,29,-43,27,-13,45,58,63,-71,-16,-28, 9,-49,-85,34,12,33,41,-85,55,-24,38,28,-25,19,-8,-45,32,-19,60,-73,127,-7,-55,-24,-47,-23,-54,-46,6,-65,-12,48, -78,-61,-16,-83,25,-37,38,-103,39,-45,-55,-56,-22,69,-1,-26,24,-5,-6,-122,1,-42,45,64,6,-57,-102,13,-57,-12,30,-20, 
  /* [63][0][][] */ 4,-34,-89,-97,-67,-31,-97,-46,-127,-1,-75,17,-42,7,18,-62,60,-71,11,-49,28,26,-105,-5,-15,-99,-13,25,4,-24,-8,1, 7,-35,-42,35,69,-59,-37,18,-18,60,33,60,-102,15,-88,-115,8,-120,-50,-106,-78,-4,43,30,-10,43,-57,-17,-57,70,36,46, -68,-8,-124,11,-30,91,-36,-2,-73,-108,49,-28,0,63,30,-121,-82,3,48,25,81,-55,-12,-60,-43,-2,4,-36,43,35,53,25, 
};
const TfArray<4, int> tensor_dimension10 = { 4, { 64,1,3,32 } };
const TfArray<64, float> quant10_scale = { 64, { 0.0016446537338197231, 0.0034896919969469309, 0.002363583305850625, 0.002213659230619669, 0.0024610841646790504, 0.00196234998293221, 0.0015194014413282275, 0.0031696637161076069, 0.0032256562262773514, 0.0024764365516602993, 0.0027205836959183216, 0.0022842877078801394, 0.002415164839476347, 0.0030787508003413677, 0.0023389225825667381, 0.0021774654742330313, 0.0021997478324919939, 0.0037510287947952747, 0.0027513192035257816, 0.0025794077664613724, 0.0018341680988669395, 0.0021703990641981363, 0.0017507029697299004, 0.0019000417087227106, 0.0016450133407488465, 0.0015260345535352826, 0.0015000749845057726, 0.0018637406174093485, 0.0018236376345157623, 0.0027154509443789721, 0.0013970579020678997, 0.0026036051567643881, 0.0026967793237417936, 0.0017106784507632256, 0.001699538785032928, 0.0023157598916441202, 0.0022621429525315762, 0.00233791908249259, 0.0020111377816647291, 0.0017709726234897971, 0.0029482210520654917, 0.0024738556239753962, 0.0032818911131471395, 0.0031120027415454388, 0.0018010869389399886, 0.0027528670616447926, 0.0029605289455503225, 0.0022824625484645367, 0.0031234798952937126, 0.0017552528297528625, 0.0024678695481270552, 0.0034876046702265739, 0.0016640078974887729, 0.0022533878218382597, 0.0026220644358545542, 0.002497220179066062, 0.0017893742769956589, 0.0023079025559127331, 0.0014194991672411561, 0.0013285764725878835, 0.0063269613310694695, 0.0015445442404597998, 0.0020687065552920103, 0.0015107651706784964, } };
const TfArray<64, int> quant10_zero = { 64, { 0,0,0,0,0,0,0,0,0,0,0,0,0,0,0,0,0,0,0,0,0,0,0,0,0,0,0,0,0,0,0,0,0,0,0,0,0,0,0,0,0,0,0,0,0,0,0,0,0,0,0,0,0,0,0,0,0,0,0,0,0,0,0,0 } };
const TfLiteAffineQuantization quant10 = { (TfLiteFloatArray*)&quant10_scale, (TfLiteIntArray*)&quant10_zero, 0 };
const ALIGN(8) int8_t tensor_data11[128*1*3*64] = { 
  /* [0][0][][] */ 13,-45,15,-44,-1,22,-43,-49,-45,-24,-41,-32,-51,-27,-13,-100,-43,-77,-125,-12,1,-8,-6,-19,17,35,11,-36,15,-31,-3,7,9,-19,13,-44,-58,-48,-77,27,-88,-16,-91,-10,-37,63,-10,-9,-72,39,-20,42,-23,-19,-68,-25,-29,-6,6,-32,-2,-10,1,15, 15,26,-59,-33,-12,-1,15,45,40,-6,-9,-57,62,12,25,-59,5,0,30,5,44,34,-64,-18,-40,35,40,-45,23,67,-20,-49,20,13,-6,-14,51,9,4,-45,15,8,4,25,27,18,-63,-33,15,-11,-93,27,4,-11,-30,6,40,37,-38,8,-77,-15,-28,13, -44,45,-14,-34,-3,3,26,-5,-79,-33,-30,18,53,87,43,-59,-22,-51,-9,-38,68,62,45,-7,-19,-32,38,39,50,24,12,-70,34,-43,-11,-13,5,-2,39,-44,-18,-111,-17,48,26,127,-31,53,97,-5,-43,-36,26,-55,38,-6,-32,28,11,-30,67,38,-76,60, 
  /* [1][0][][] */ -21,-2,-46,-43,-9,-10,30,-58,3,13,-17,-17,-49,-40,4,-73,-51,23,-71,-56,29,-17,-46,12,-52,26,-42,-24,59,-22,-60,41,-7,-26,18,9,-45,-32,-34,9,-18,30,-52,-17,-10,-47,7,-49,-51,49,-65,-71,25,-8,-42,48,6,-16,-53,43,23,1,-17,43, -26,21,-36,72,-56,-60,-3,13,-56,-62,32,-52,-70,-99,-9,39,45,-44,-127,-68,-6,8,17,-12,25,1,-45,24,41,77,-20,-44,-61,36,41,-18,-86,-83,-20,19,10,-103,-45,-78,-43,-24,-13,-2,-55,-19,-10,-47,-1,37,-26,-50,44,-5,-20,-47,21,37,39,3, 45,5,-27,-30,-44,21,-12,-75,-15,-19,-41,6,59,-93,-75,-17,-23,47,-35,-16,64,-73,-13,-18,14,-18,16,21,83,-7,-73,-7,-51,18,18,-32,10,32,4,32,50,-93,9,14,-70,58,-20,-68,23,-23,6,-32,88,1,3,9,30,7,35,-21,-43,-59,23,-7, 
  /* [2][0][][] */ -8,-19,22,-5,35,-16,17,34,49,24,25,28,-29,17,-14,30,-28,-97,-11,-1,-3,-64,24,-29,-19,8,9,0,13,30,-8,26,15,-1,1,29,-31,37,47,-17,-5,2,-32,-32,12,-18,-1,15,-15,11,13,35,-19,-20,-3,-43,-5,-17,-10,4,6,-21,39,20, 17,34,3,-2,-29,5,13,63,27,-11,20,16,-29,4,9,6,24,6,8,25,44,23,-6,16,3,-23,11,38,5,-9,29,10,-8,-5,20,-21,-61,-7,7,4,21,53,28,-18,-45,-18,21,-3,-13,17,24,45,-6,46,73,74,-9,67,13,1,44,-30,-4,-19, -1,27,1,-25,-26,-21,-23,64,108,-40,3,-11,-106,-68,-6,-39,-32,49,81,0,-23,-79,-55,1,-7,5,9,-3,18,-24,18,10,9,22,-21,20,43,38,-20,1,127,93,45,-40,32,0,-11,7,-107,16,-28,-1,-5,15,-9,20,-17,2,15,6,-6,-79,-50,12, 
  /* [3][0][][] */ 10,-2,11,-33,29,14,7,34,-8,-47,-7,-34,39,-35,36,7,-6,-21,34,26,7,-1,-16,-28,0,-1,-12,-18,1,-15,-27,-23,22,-26,-13,-3,8,6,-31,-8,-53,-31,26,51,14,-19,-3,43,3,-7,-41,-57,-19,18,-34,10,23,21,37,-10,8,35,-17,-4, 23,-19,-13,-4,34,-28,-3,6,15,-32,18,-51,-15,13,0,-35,40,5,5,-21,-56,-22,-5,78,36,7,-3,-20,-22,-36,-15,-99,1,19,-13,-7,36,-21,-29,6,-1,-4,12,23,-13,-25,-50,5,9,-6,-46,-39,8,-2,-42,38,25,49,27,-2,127,-11,-45,-5, 27,17,-41,-2,5,-4,8,-27,17,13,-41,16,10,13,-39,-23,17,-3,-33,-34,13,-43,-13,5,12,-5,12,9,5,-16,-20,0,7,-9,-10,-11,-12,-29,10,-15,-54,-39,-45,-17,31,-19,-36,8,-18,21,-2,-3,-21,-48,-2,4,25,17,22,22,3,1,-22,-5, 
  /* [4][0][][] */ 27,127,40,-7,-22,-94,63,-21,-52,-39,3,-50,13,27,1,-74,49,12,65,28,-92,40,16,3,-23,12,-22,24,-26,-14,-36,-107,17,-54,-33,-16,63,-24,-6,-9,25,55,29,67,-24,11,49,29,-2,-15,-51,-25,-26,67,-66,-4,11,13,7,30,11,40,12,35, 14,117,-41,14,-21,-44,19,-63,-62,15,30,10,12,46,-103,-25,-54,-12,-20,-9,49,29,-12,-2,21,20,18,-48,23,11,24,-20,5,-27,-19,-36,2,-33,24,12,-48,-77,-79,-33,93,-26,2,50,-17,23,-41,-7,31,-84,-63,62,2,1,10,10,-36,54,1,3, -9,11,16,-23,-21,16,-6,-11,-62,28,-7,-48,-11,3,-2,-18,37,-38,-24,-72,4,-37,-29,-12,17,28,26,-34,-19,-2,17,2,-11,-34,12,55,-38,12,-29,32,7,-54,-72,-8,-7,-4,-40,46,-66,6,-11,5,7,-8,-39,-36,-5,-22,6,-5,8,13,-34,40, 
  /* [5][0][][] */ -30,15,21,-2,24,-26,15,-32,6,-4,14,-28,8,-50,31,-1,22,-39,38,-18,2,23,-7,-10,15,-26,16,37,21,-53,29,-1,-29,13,-22,33,29,-3,25,-46,5,-45,-39,3,55,-57,-18,-18,-24,-3,11,-17,3,22,-27,2,34,31,-14,15,-1,10,-2,-10, -5,13,44,8,-54,-32,-20,1,55,22,44,34,-21,-45,29,18,31,-50,-60,-50,-11,-73,4,63,28,-2,-13,4,-37,29,-16,58,-39,23,11,27,-28,-2,42,14,16,28,-14,10,-22,21,-1,14,-21,8,39,-11,-16,2,23,-27,-14,13,15,26,-6,9,25,29, 10,-56,-35,-60,-72,-35,4,36,41,-8,-25,3,9,11,43,21,-5,36,-51,81,-4,-12,-6,-31,-38,-39,-5,36,9,26,-40,33,7,-13,11,9,-25,20,26,3,61,126,127,-35,-5,10,84,-5,-18,0,31,-14,24,48,-13,58,11,52,-37,-37,-9,-23,40,-31, 
  /* [6][0][][] */ -11,33,-19,62,-10,4,-18,-118,-17,28,-3,38,10,21,-2,-34,-30,-46,-33,7,-26,34,-22,-22,10,18,-9,-25,2,56,-27,39,-1,-15,-6,0,-23,-55,26,29,-18,-71,-41,-25,24,7,-23,31,127,28,-2,8,7,-4,0,40,-27,-33,-17,6,13,-37,-29,1, -23,-23,1,-9,-6,12,-21,-36,-28,-16,-17,-60,50,-45,-31,-25,4,3,21,10,20,-16,-28,-28,23,14,26,8,19,14,-7,-19,-21,-5,11,49,-49,-27,-6,14,-36,-22,0,39,-37,10,-43,0,22,-12,18,-9,19,-31,-2,-19,16,24,2,-21,-4,-23,19,-3, 28,-34,-15,-33,-23,-37,10,13,-31,-38,-21,-3,4,-4,19,-1,3,0,-7,-28,12,-24,5,-5,12,-1,22,-10,-18,1,-23,9,-5,6,-12,-6,-15,30,2,14,-51,11,-33,-36,-21,22,-1,-22,1,-14,-12,6,13,13,-16,-24,-33,21,-25,-7,-22,-17,6,-31, 
  /* [7][0][][] */ 66,-33,84,-54,-29,85,78,105,-15,63,-45,27,19,8,37,-17,-29,65,67,-46,-88,31,-39,-104,50,0,48,-11,-57,-55,-20,65,91,-20,32,-66,-70,-9,-102,-94,-2,-91,38,39,-46,-59,-36,18,64,90,-86,-49,-35,-69,-66,-22,-10,-15,71,-58,-34,64,-89,-79, -20,-59,51,10,-116,-42,-44,109,-58,-127,-36,-68,-42,-68,-33,8,111,50,23,-12,-94,-32,-47,-83,-114,-53,-73,-43,6,81,-64,84,10,-49,88,-6,-60,6,33,-26,-40,53,-69,21,-86,-22,-63,-96,-92,27,57,-93,10,33,-88,39,50,65,-34,-9,-23,-16,-57,50, 14,-15,-27,15,-11,46,7,19,-18,20,-96,34,-17,-109,-52,-15,-57,-59,-54,109,-50,-108,23,-5,31,-2,71,-45,11,-32,-60,24,-3,22,10,14,22,-48,-105,42,-10,-84,-75,49,48,-45,-12,13,-53,-33,-39,-103,-86,-62,38,-126,12,39,-35,-8,9,69,4,-47, 
  /* [8][0][][] */ -21,-78,-24,-34,21,-6,2,59,-61,-48,-3,-16,0,-22,2,3,-15,4,-12,9,10,-19,-32,30,7,8,0,-14,-16,-12,-6,-41,11,-5,-22,-8,-39,-127,-31,-33,-28,-82,-3,49,4,-18,-41,-3,7,7,-38,-54,16,-36,-82,-3,11,-30,-21,-25,18,26,-72,4, -37,-20,-30,9,21,-6,-17,-19,11,-21,-22,-74,12,1,18,-18,18,62,23,14,-43,-24,-15,-6,-3,2,-3,-24,-18,0,-18,-53,29,-3,11,4,31,4,-9,-1,-19,46,49,44,-8,5,19,18,35,-29,-9,-53,0,16,-39,-11,-8,10,8,-4,23,3,-21,-6, 9,-27,-14,11,29,-10,5,-32,-36,1,40,35,27,27,-13,-13,-22,10,-14,-31,-5,20,-20,-15,-14,12,12,-30,-7,-21,-4,-58,35,-30,-27,48,51,-22,-10,-11,-26,-51,-42,-3,14,34,-52,-4,48,-23,-33,-32,4,-25,19,20,-15,31,13,-7,4,-13,-18,22, 
  /* [9][0][][] */ 4,-99,38,41,-5,16,-1,-32,-18,-92,76,0,16,-26,27,-60,-58,-35,10,-67,-19,-46,-45,41,-43,28,-13,-35,35,-68,-60,-49,27,-51,-29,-58,-8,-73,-71,46,-93,-61,-28,59,-6,53,-71,21,30,-52,-61,13,24,-54,-70,-22,10,-19,23,-36,-5,-46,-61,39, -46,93,-70,-10,-1,-17,59,-51,-93,-42,4,15,51,50,7,-16,69,92,46,34,5,-58,-12,-70,-69,-24,-66,-7,44,87,21,-58,-29,5,13,22,26,29,-91,-25,-61,-13,4,-65,-21,41,5,29,-4,16,-127,-25,52,47,-50,-44,0,39,27,-8,-20,56,23,64, -31,-60,13,-38,45,44,24,18,-73,43,-2,11,73,88,0,-52,-13,-38,-55,-5,6,9,-35,-23,-56,2,50,20,-31,27,32,13,18,62,-30,18,-20,-10,-62,-18,23,-52,-9,22,-22,-26,-66,61,14,25,15,-18,11,-15,39,13,12,47,-58,40,13,-21,-30,74, 
  /* [10][0][][] */ -39,-62,-40,-14,-45,-26,-12,1,-39,-70,10,-25,-84,-86,51,-58,-39,-95,-79,-18,-91,23,7,-5,-38,-13,-21,11,-6,-27,-5,22,-12,-12,-9,22,-40,-1,19,10,-58,-46,-95,-17,13,-89,-29,-17,-19,14,-20,-36,0,7,-4,-35,-37,-22,44,1,-24,29,-12,-46, 10,25,-29,1,-27,48,50,-29,52,23,25,28,-31,-56,-29,74,-35,-51,34,-1,2,0,-3,-7,-18,54,48,32,-44,40,-33,25,14,-66,26,6,-46,30,85,-5,37,-29,11,-14,65,6,52,5,-56,26,68,-1,30,41,15,40,29,-5,-46,38,70,18,16,50, -25,26,97,-18,-73,-20,45,120,62,-60,30,-31,-13,-51,76,26,27,122,6,-5,44,18,77,-75,-18,-26,-44,-14,15,89,-14,67,-16,-10,35,-4,-43,74,0,42,113,64,127,-60,49,42,47,22,-39,-22,106,30,68,35,53,90,22,-15,58,-32,-79,16,54,23, 
  /* [11][0][][] */ 9,-35,-10,-12,-20,15,-19,-11,6,2,-8,-58,-5,3,-30,-17,-4,-11,-16,33,-12,-12,-16,-15,-14,-4,-6,-1,-14,-17,3,-27,-18,9,0,12,-31,17,-19,2,6,14,-31,-9,-26,4,-33,-1,-14,18,6,-37,-15,-14,-27,8,-27,8,12,-20,-9,13,-19,-23, -16,33,15,20,-27,5,14,-30,11,-29,10,-5,47,-12,-27,-12,-5,127,22,-18,5,-25,10,-23,-20,-24,9,-3,18,-30,-5,-23,-17,-5,14,20,-23,11,13,4,11,29,40,55,-3,39,-32,0,16,-42,0,2,-2,-23,-20,-38,21,-22,25,-7,2,19,3,8, 20,-16,-55,44,35,4,29,8,-31,23,39,-5,58,45,35,-25,6,-75,-10,7,20,-36,-79,-4,-5,-10,15,7,-23,-3,10,-41,82,17,5,58,-3,-52,-30,61,-32,-14,31,13,-31,105,18,-14,72,-21,36,-53,2,-5,-55,-6,18,-10,-4,-19,53,50,-44,-21, 
  /* [12][0][][] */ -37,55,-7,-18,-76,-51,21,-6,-27,66,36,82,21,-15,41,-26,74,-31,-59,-99,-72,-7,-43,-72,-28,-70,37,5,73,-24,-10,-4,34,100,-23,67,-58,-41,-1,65,34,-37,0,3,25,21,5,-22,50,-16,28,-44,2,-56,-111,-74,-57,57,37,66,-73,-8,21,-50, 30,-25,-56,-44,-100,32,77,-127,-56,38,-60,-34,49,33,51,-37,-22,23,-24,-71,-68,-57,-64,-35,-8,32,41,4,-44,-47,22,-20,-25,-27,-5,-57,-16,-38,-14,14,-115,-85,-14,-56,67,-16,-47,-55,-102,98,1,-21,-43,-85,52,22,-36,-28,53,76,-20,40,-25,20, -35,48,4,-5,-37,-24,-89,-84,43,-55,37,21,-77,32,-56,15,-26,-39,40,-83,-80,-57,-48,-50,60,-49,64,45,-1,22,51,-84,-85,60,-90,-13,-1,-18,53,-60,-77,-45,-26,10,-91,-86,-102,-21,-98,-28,24,-54,-42,-65,-48,-77,76,11,-38,-61,-14,-25,-34,-53, 
  /* [13][0][][] */ -25,-28,-1,-17,10,-11,25,-21,20,-11,-19,13,11,-21,-6,-18,-17,-9,-35,-26,14,-45,-26,-25,16,13,12,33,-19,-40,6,-52,14,13,3,9,3,-12,14,6,17,-21,-13,-7,10,2,-18,-30,-16,34,19,-18,30,-39,-26,-37,-11,-55,-34,22,18,-3,21,-4, 22,46,15,-24,55,25,41,-18,25,30,19,39,-14,-1,-13,21,-13,-7,10,-14,6,-43,-50,26,-23,-15,30,-14,-3,-21,-12,45,-15,-6,-15,-28,-42,26,16,-33,-18,10,-10,-62,14,4,30,-9,48,42,15,27,-9,-17,37,1,13,77,-35,28,-27,30,-31,4, -10,92,-19,-31,-26,-11,7,30,13,5,19,-34,-50,-75,54,-32,7,77,42,-6,6,45,48,-5,-20,4,24,14,15,36,23,14,18,32,11,27,-1,46,18,13,54,36,127,13,-23,39,35,16,80,28,6,3,6,14,-8,5,11,69,30,-18,11,-20,20,-6, 
  /* [14][0][][] */ -28,20,11,25,-3,-24,3,-42,-58,-57,-23,-57,67,58,-26,-86,5,-1,65,47,-13,-22,24,57,33,14,-11,-31,0,35,-36,-127,22,94,0,26,63,-4,-38,-77,-44,-91,10,-12,-4,5,-27,23,39,-30,-107,-34,3,31,-57,-50,-19,-24,23,-8,45,3,-22,18, -28,-2,13,39,34,36,-6,31,-52,-27,57,27,72,32,-25,-61,15,-49,-15,58,19,30,-45,47,-15,-49,12,-25,10,29,-43,0,8,-18,-34,-27,-28,-55,-99,61,-19,-43,-1,-78,12,-16,-54,54,32,-15,9,-25,13,-43,-41,23,-33,-36,-16,-1,98,-5,-79,-20, -8,17,-37,56,-11,-7,7,-35,3,-30,9,-51,-23,-28,-5,-40,29,9,2,-5,-19,58,-59,-8,-15,-29,12,-26,24,-15,17,-76,-8,14,20,-33,-37,0,-52,23,5,-34,-57,-12,29,-26,-29,13,-31,15,-18,-80,2,-22,24,-3,17,-12,33,2,-6,16,-59,-21, 
  /* [15][0][][] */ -17,3,-17,4,9,-7,-25,-24,10,17,16,-15,-14,-17,-6,-6,23,-10,-3,-9,-18,3,5,-18,13,14,-19,-3,-20,-19,16,10,13,-13,0,-12,-26,7,-17,-2,-4,-13,-5,-5,-6,15,-2,-12,5,-17,3,7,-12,7,1,7,9,16,-3,-16,-14,-7,-8,5, 8,44,-5,10,-23,8,-14,10,-8,-12,3,-14,-23,1,-14,0,11,-5,-6,-4,-4,4,-17,-1,-2,-17,-5,-17,14,-18,4,11,8,-20,18,-12,-65,9,-26,-15,-22,-22,-12,10,3,-19,1,-42,14,10,-1,-12,-14,-35,14,-19,13,-27,-4,2,8,2,-25,12, -6,49,12,-7,4,8,-6,-11,127,15,-30,-16,0,-33,50,-11,-5,35,9,12,10,2,7,-14,1,13,12,18,15,15,-10,11,-11,-12,8,-31,-36,37,-9,-17,80,63,62,-34,-38,-49,53,-19,20,-10,36,-16,-10,46,-1,13,-11,-11,-13,7,36,34,2,15, 
  /* [16][0][][] */ -6,-36,11,-2,-26,-15,-20,-7,-23,-3,-5,-35,-21,-25,-19,-23,-3,-21,-38,4,12,10,-13,14,-1,22,-17,-4,-19,4,-17,-7,-21,0,13,-5,-13,-17,-9,-3,-16,-16,-29,-10,5,-12,-35,-15,-21,9,-36,-29,-19,-21,-49,15,9,-18,-5,17,19,-9,-1,4, -14,5,-7,32,-11,-24,-42,-20,-12,-23,-33,-56,39,21,-25,-7,20,14,-11,60,-22,14,-76,-27,-23,-17,6,5,18,20,21,-34,40,-11,-22,40,9,24,3,2,-24,-20,14,31,-40,-12,4,2,31,14,-21,-47,15,-6,-38,-26,-13,7,-29,23,-19,-1,-12,-34, -13,-16,-52,25,49,10,41,-20,-44,-16,-41,-5,58,65,-15,-41,-44,-32,21,10,15,23,-73,-40,18,-18,6,26,23,-7,16,-16,56,18,-3,7,-4,17,14,19,-14,-10,-10,-37,-26,49,11,26,38,7,-3,-44,-17,-27,20,14,26,17,-13,-4,127,31,-12,-9, 
  /* [17][0][][] */ -69,-60,24,56,-43,31,23,0,-58,3,-81,-1,20,20,12,-14,56,43,-48,7,20,-4,-3,-2,16,44,27,-82,50,-22,-37,-56,-7,-17,-31,-34,48,-66,8,6,-56,-48,-11,61,22,-34,18,-44,-48,-21,-13,8,38,-56,-15,-13,47,-76,1,-17,46,44,-24,-37, 29,-55,4,-22,-46,-28,-64,8,-66,-1,64,-31,-6,-18,-28,-43,44,41,-44,-19,-23,7,-21,57,55,29,23,-1,7,-5,54,-66,-83,15,2,-35,-30,25,-71,-6,-14,-1,31,11,-9,12,-4,4,-32,-70,-62,-101,0,-15,-64,-31,-74,127,-15,-36,-53,-36,-94,-16, 7,11,-5,14,9,-53,52,48,-124,-6,31,-1,42,67,-28,31,12,70,-40,-24,47,45,-26,51,-16,56,3,-45,64,-50,20,-78,-12,64,30,-28,23,12,21,29,-124,-55,22,-55,77,-29,-60,52,37,-37,-51,27,17,-102,-78,-34,-13,22,-65,-24,35,3,5,-12, 
  /* [18][0][][] */ -16,-13,37,16,-42,-28,-51,-46,-34,10,8,-60,13,-28,15,6,-82,-96,0,-36,-37,69,2,-48,30,26,45,-71,-86,-78,55,-87,17,45,-16,-8,-39,1,30,54,-45,11,-32,-28,57,-65,-49,-71,19,62,8,28,18,-38,3,-51,-28,48,50,29,57,19,-117,-58, -74,12,-29,8,5,-86,-88,4,43,46,-51,8,-13,33,-31,30,11,-123,7,-22,-41,31,-58,-6,10,-49,-65,-17,38,23,-26,29,7,30,-85,32,-63,26,-57,-18,-44,-79,-37,-10,0,-35,-9,28,-29,-54,-6,-59,-58,-81,39,24,25,-15,50,18,32,-24,15,-15, 52,-5,-51,-75,-24,-58,0,49,-28,-28,-49,-10,11,14,2,-86,19,-116,13,60,-30,-9,-41,4,16,56,-53,-3,-47,52,12,-61,6,-25,-24,-20,-28,21,-29,85,-40,-5,7,-10,-32,-45,10,-52,-127,20,-27,-75,-33,-24,41,-2,-36,41,20,-34,-27,58,-56,-4, 
  /* [19][0][][] */ 12,127,15,15,61,12,0,-36,-20,9,-3,10,27,28,1,-21,8,47,26,1,25,2,-1,16,7,16,14,-30,-3,25,13,-49,-1,38,-7,-9,40,42,-18,-25,-14,-1,36,6,7,47,24,32,21,-6,-23,-3,-3,11,11,10,12,23,-6,-12,-2,27,-31,3, 6,37,-6,31,17,12,12,-69,-45,16,2,38,1,52,-24,-36,-9,-18,-10,-9,-11,29,-3,-24,6,5,-13,-10,-27,-6,-12,-37,41,35,4,1,42,10,-33,34,-6,-64,-34,-38,-31,-4,-60,25,40,0,-25,-25,14,-3,12,0,19,15,-31,16,19,8,-36,-13, 2,20,1,-15,21,12,-18,-2,-13,17,6,31,-2,16,-15,-10,6,-49,-26,-11,0,-5,-6,23,-4,-22,-7,13,-6,-4,4,-40,25,29,-4,-30,12,-5,-36,1,-6,-57,-35,20,2,-21,3,-31,-25,21,-4,-4,-10,-6,14,7,-14,28,-22,-10,5,-23,-11,-16, 
  /* [20][0][][] */ -77,-19,24,109,-30,45,-90,52,-53,-110,-89,-23,-31,-103,73,-3,-51,32,17,-67,19,-38,39,12,-58,-127,73,-31,4,13,70,-21,-82,-59,-14,69,-8,48,-82,46,68,-58,-63,-19,-12,-23,-28,48,-36,-17,-67,-88,-41,1,-9,-29,15,81,-60,55,29,-25,-48,-15, 90,-28,-63,24,-25,-32,-44,-34,60,-84,-3,-57,2,-95,-6,7,63,38,-88,-16,53,32,-92,-57,-47,52,57,-92,-73,-81,3,-67,28,-43,57,61,-11,-34,-72,-88,-45,52,-80,-82,-80,0,-91,-80,-47,-47,4,14,-10,-64,-71,39,-68,-19,12,45,-33,-113,47,26, -33,-47,-7,14,-44,-59,-27,11,-121,68,-39,-74,-40,-22,-31,-77,23,-102,-41,40,81,-13,-67,-9,35,-65,-66,-31,26,-31,-61,-53,7,11,-78,13,-23,-30,3,-4,-39,12,-52,83,26,12,-109,-21,1,63,0,16,41,-71,66,61,63,-58,51,5,49,19,-13,-50, 
  /* [21][0][][] */ -29,-2,19,70,0,7,-9,-30,-10,-14,-39,-40,127,54,1,-13,5,61,-5,-10,-37,26,-19,0,3,-23,19,-5,7,94,1,-58,16,-6,-7,44,61,-53,-34,67,12,-8,12,62,-20,96,12,19,117,3,-27,-27,23,32,-93,-41,8,-11,21,14,-28,-29,13,9, 2,-29,3,9,21,-29,-21,-69,-61,-17,44,6,43,-29,24,-68,-2,75,-14,-13,-6,11,-30,33,10,23,-16,15,-29,60,-11,-84,-14,-24,20,-9,38,6,-50,13,-10,-15,11,7,3,74,-34,7,17,-16,-36,-24,-26,12,-53,22,-19,-43,-18,38,25,13,-34,22, 33,-7,-33,-18,37,-8,10,-30,-68,6,25,10,57,38,24,-1,0,-44,-23,-8,-13,-20,22,-16,-11,27,-9,-16,-25,-30,-3,-13,42,-17,19,-21,26,8,34,-9,-25,-1,-67,-22,-12,-52,-12,-11,65,-17,-23,-23,-19,-20,-27,-2,24,-37,-23,-10,1,-13,-1,-5, 
  /* [22][0][][] */ -50,4,5,-5,25,-6,6,-87,-45,-55,13,-67,-2,17,-88,-45,93,109,75,45,24,-56,41,-66,32,31,-3,-5,-14,-56,-34,-63,-32,31,-20,10,64,88,-31,25,-70,-96,31,83,-20,-36,-33,36,-11,67,-40,-55,23,20,-74,-91,50,6,58,-14,-31,-24,-75,-46, 86,-127,-24,-26,43,31,-31,10,-82,-3,-12,-18,48,9,-47,-90,-60,-12,-95,-33,39,5,-6,-45,6,14,24,-23,-48,-60,44,-60,23,-14,12,30,22,-69,-54,-32,-87,-50,-47,76,-3,-70,14,-39,3,12,-44,-3,29,-29,-16,37,41,-5,27,14,68,-46,12,-23, 14,-9,47,-10,46,-36,23,-41,-43,-44,4,5,-40,-42,-44,-81,-34,4,14,-56,26,31,-29,-25,12,6,12,28,-1,-25,13,-65,-27,-6,17,-6,8,3,-64,-24,-44,-81,-93,-22,0,-30,26,-44,-52,18,0,-40,-32,31,22,40,30,48,-35,-10,-45,-43,-60,32, 
  /* [23][0][][] */ -4,-23,14,11,-18,-9,-25,-5,-1,-20,14,-19,-10,-8,-18,0,12,-31,-63,15,10,-42,-69,13,21,-29,-6,-15,-28,6,12,-32,-6,17,18,0,-1,1,-19,29,-52,-57,-36,-1,21,-29,-25,12,-24,-8,-19,-46,-20,-29,-26,-13,10,-11,-24,-3,32,-39,-57,-18, -29,-2,-62,-45,-49,-10,-26,-19,25,20,5,-6,3,-53,49,-47,-1,-49,-61,-15,-32,-22,-39,12,-39,-41,23,34,-14,-2,-4,-21,12,-37,-33,20,-101,-82,68,-18,9,4,-73,-13,-5,-86,47,-45,-48,-20,24,25,-40,-63,17,-45,-44,28,14,-6,23,-23,36,-43, -32,38,35,43,-12,-21,19,40,-9,-28,127,32,-73,-26,40,-36,6,14,70,-31,5,118,20,2,37,92,-3,87,-3,30,-3,-24,70,-37,-9,-21,-27,12,-7,5,16,0,51,-18,52,40,19,39,67,25,-20,44,-13,23,-18,1,-5,34,-29,-7,-10,9,0,17, 
  /* [24][0][][] */ 18,-5,-18,24,-41,26,10,2,-23,-25,38,-22,5,-55,21,-43,-10,26,-13,-9,-9,19,14,-5,-20,32,-4,6,-14,1,-13,-60,1,-5,27,15,30,-10,-19,-9,-22,-23,21,33,6,-3,-5,5,23,21,-55,-51,-19,0,-44,-19,-17,-16,15,-7,4,2,7,5, -11,10,-5,6,29,-6,-27,-2,-32,-18,-5,-42,19,20,-25,-37,29,-7,6,-9,0,17,26,-39,-20,-25,7,-15,6,70,13,-33,7,-17,-16,24,20,5,-20,14,-20,-23,-3,-28,-21,31,-60,5,25,25,-28,-29,17,-20,-29,-2,-11,-24,1,11,36,-10,-16,4, -20,22,12,28,15,-14,0,-2,-29,-3,9,-4,35,44,28,-2,8,29,4,33,13,19,-18,-44,28,-16,7,-3,21,14,-8,-17,6,3,-13,-37,2,2,11,17,-6,-23,-21,-21,15,9,-3,27,23,16,-44,-19,-19,-3,8,4,-10,-14,8,18,127,18,-18,4, 
  /* [25][0][][] */ 6,-49,83,-68,-61,52,-10,44,-23,67,-43,-41,-83,-34,46,38,72,-59,60,92,-41,-31,-43,42,-56,-35,-57,-51,-8,-69,-35,80,-32,-59,-49,-14,5,21,-78,56,-71,-13,15,56,43,27,-12,-35,-39,25,-4,-19,-33,71,-44,79,-68,108,46,-59,60,-39,1,6, -38,-97,-68,41,-31,-45,32,-57,-51,25,-16,-80,10,-42,87,-47,14,3,-41,2,-41,5,26,127,6,22,7,7,-30,-64,-19,10,-44,-23,-21,-59,-14,-31,-31,44,10,-80,75,-7,-70,-61,-24,-63,126,48,-18,-38,-76,-64,-3,-10,29,18,-8,29,-35,4,-19,30, -54,0,36,-77,17,-59,-25,-69,-99,-9,-111,-109,75,32,-44,-14,-56,25,68,-43,-27,-102,-69,-43,-20,-7,-24,-48,-1,-44,11,-107,-16,16,-45,-39,-123,-19,41,-11,-59,-17,19,-14,-118,22,-6,29,0,30,24,-65,25,-89,-49,-17,30,-29,13,-40,18,32,-80,11, 
  /* [26][0][][] */ -76,-123,67,-43,-103,42,57,6,74,-78,39,-115,19,-30,14,-22,-69,-71,-51,5,70,-61,-39,-62,62,78,-5,-53,-42,1,6,6,10,-45,-29,-33,-65,-64,64,-35,-79,-110,-60,-61,-49,-25,63,-127,-41,4,-65,-112,32,15,-57,-38,68,21,-52,-49,8,-62,-32,-3, 13,-13,66,-60,-60,11,93,-43,-94,33,-19,24,5,26,-26,-73,7,28,-14,-112,-91,-9,-54,-26,39,-59,-48,42,-12,-14,-57,-88,-22,-115,-36,-78,-100,14,-75,-47,77,-101,-33,-87,-49,16,-27,-78,-62,-10,-92,45,-55,-17,-99,12,-42,10,103,53,-49,4,-80,-93, 30,-93,-93,-89,-92,65,7,-86,40,-41,-49,-103,41,-91,-12,23,46,3,2,-97,-58,-61,-52,12,49,12,94,-20,-22,19,33,33,62,6,36,70,45,-48,8,-91,-23,-96,-125,32,47,-36,46,2,-75,73,22,3,-63,26,-68,6,44,54,-47,-71,80,66,-85,-50, 
  /* [27][0][][] */ -47,-1,-21,-20,-5,-16,50,-49,-28,-65,9,6,9,-80,-17,-78,52,56,48,127,-46,1,-12,-4,21,-25,90,-20,28,57,45,-17,79,5,22,-60,107,57,2,56,-59,35,-27,-28,3,-32,-119,117,7,70,-39,29,-25,-37,-40,11,-22,-15,26,89,-3,-21,-15,-64, -78,-44,-63,66,-44,33,-47,6,-109,41,34,31,88,63,-12,21,6,31,-63,-60,-78,-7,24,54,-31,65,-64,46,-6,-73,41,-31,48,-17,29,-123,-26,21,-89,36,4,-76,-124,11,-20,-122,-6,-77,34,47,-108,-82,20,-17,-3,7,-28,-110,74,-12,-40,-12,-54,15, -31,-90,20,38,-43,-78,88,42,11,-62,-31,-52,-65,-85,-2,-34,10,25,-51,62,31,-90,-5,-64,3,19,14,49,-1,25,39,6,19,3,-71,-61,-18,-78,-17,-70,-82,-59,35,38,-80,-45,-42,-45,11,-41,-51,26,-45,-13,-24,-60,-42,-43,33,64,-67,-44,7,-33, 
  /* [28][0][][] */ 25,-56,23,57,29,0,26,-18,-21,27,-28,-25,49,50,-45,-19,-42,66,-15,-31,10,-42,-51,30,30,29,-4,11,19,38,-42,-103,-27,30,10,11,0,102,-15,14,-48,42,24,-22,-26,51,8,33,28,41,15,11,3,-34,-32,38,24,-68,-26,25,-11,2,-26,-6, -15,37,3,36,-21,-38,-27,-28,34,62,-25,5,27,11,26,26,-30,-25,15,-8,-71,24,16,32,15,26,-9,-20,18,50,24,-10,-20,-26,21,24,-12,-28,39,-34,9,-44,-105,-50,-10,4,-22,37,36,-31,-33,-17,-51,-54,0,-62,-25,38,-52,-42,-37,5,40,7, -43,-46,45,-22,46,-11,6,13,-127,2,2,-11,16,17,-96,-36,-43,31,-58,12,42,6,-58,-43,34,-50,-12,-83,-45,41,-34,12,-2,-12,19,-5,55,-42,-59,-30,-64,-92,-46,110,-19,-35,-80,-8,-24,30,-47,-77,-3,-59,-19,-22,36,29,-23,10,-12,-42,5,-42, 
  /* [29][0][][] */ 44,-27,-17,-10,61,2,-21,62,54,58,21,13,-33,-10,23,-8,28,-63,-127,22,25,-13,-41,-82,-5,39,-21,24,-10,-28,-23,45,18,31,-17,7,-43,-72,58,24,-21,-73,-74,-16,24,-60,-27,-20,-24,30,39,10,14,31,52,3,46,14,28,-33,-23,-26,60,12, 17,-1,5,39,-46,56,5,18,-21,-31,36,-27,26,-54,18,24,20,7,-7,-15,-19,6,22,-54,25,-4,-24,4,15,2,13,-22,-38,22,15,-7,-26,-47,-51,15,36,-12,-32,24,33,-7,-79,-8,56,-45,20,-42,5,44,-8,38,-34,2,13,-6,4,-26,-31,-15, 14,-22,-23,-91,-24,17,-37,-16,1,-55,28,-74,-66,-65,6,-42,-32,13,-17,-28,38,-34,-78,18,3,1,25,-48,39,-4,-38,-82,-67,-1,15,23,-107,-40,-53,-22,-15,61,-68,-42,-25,-42,-80,-25,-7,27,-57,0,13,-19,-40,-31,-35,-21,-10,25,23,32,-70,-21, 
  /* [30][0][][] */ -10,-11,-2,11,81,-4,65,-13,-69,-80,-39,-32,50,20,-9,-10,23,-49,3,30,-52,12,-12,22,-35,60,49,-15,11,36,-48,-52,49,4,58,9,47,6,2,-17,-15,-16,-4,114,35,-58,-30,91,27,46,-51,-24,-9,-36,-43,-26,38,39,-13,-23,45,-15,-50,53, -59,-24,1,-8,-74,17,-37,27,-37,2,59,-38,19,-67,69,7,20,12,-3,37,30,-12,36,-18,35,29,33,35,-56,-83,28,44,-33,-18,-17,-51,-108,-53,18,-15,99,21,19,39,24,-51,59,-15,-17,-2,15,82,46,-45,-8,-10,-5,30,5,13,-12,14,54,-27, -3,13,-46,104,-4,-28,14,-94,127,116,2,111,8,15,3,42,-47,-66,-74,-58,11,108,24,-39,45,-32,17,-27,-54,-53,-61,121,18,5,9,-22,17,-103,60,-51,3,-124,-100,30,-47,-51,8,-34,-9,28,41,43,-51,-40,-4,-40,23,-4,-36,8,-96,-55,-28,31, 
  /* [31][0][][] */ -11,23,-36,-23,2,-6,17,-12,-33,14,-3,-16,16,-38,-31,0,13,-25,-5,10,0,23,-1,-25,-5,-11,-18,-21,-25,16,-6,26,-27,5,12,27,-13,-26,16,6,25,-52,17,-24,-16,-26,-19,-33,-49,-23,25,5,-8,23,-20,-31,-28,15,-16,-3,-4,-1,5,-33, 17,36,-19,26,-100,-25,-40,-10,92,-7,6,50,-83,14,16,69,9,-5,-24,-53,28,23,-15,9,-29,13,-18,-5,11,0,0,84,-11,-35,7,-5,-5,-18,-10,5,40,43,37,-21,-40,-17,116,30,0,5,84,106,24,12,37,-9,5,-23,-30,-29,-48,-21,2,-38, 15,-26,8,25,17,8,23,0,-63,1,-17,24,-127,-17,-33,39,13,27,15,-20,-34,-47,-4,-30,-17,1,-11,1,-20,-4,23,20,-6,8,-24,-14,30,-14,40,-6,3,11,-93,-91,-31,0,-5,-18,16,-23,23,61,-35,-23,9,-3,-1,-26,-19,14,-51,32,-1,8, 
  /* [32][0][][] */ 21,20,7,-16,20,-6,-5,-1,-27,-47,-29,-14,17,-19,3,-84,-25,88,49,-15,33,-28,-28,13,23,-9,-9,-11,-15,-41,-9,-58,14,-1,-4,-26,-5,9,-36,-4,-119,-55,2,9,-18,10,-20,-26,-11,12,-35,-56,13,15,-50,18,-22,47,-9,-1,-14,24,-33,-22, -30,127,-19,0,28,-18,25,-18,-20,23,11,-15,8,29,-20,-41,-8,76,16,2,19,15,25,-9,27,-7,-7,-17,-18,4,14,-31,13,8,-9,-13,47,81,3,-29,-20,-4,18,-53,26,50,-13,42,-4,-29,-45,-32,16,12,6,2,-9,20,-3,-7,25,-4,-19,9, 14,-8,38,5,60,18,-15,-3,17,0,22,9,8,58,-30,-16,-4,5,-10,-13,18,35,21,-26,15,-3,-24,17,-14,-26,5,-8,5,57,-14,19,26,-16,-9,-12,-2,-49,-10,40,8,25,-5,7,7,-8,20,25,-3,1,7,2,-11,23,-16,-21,-13,5,-3,-2, 
  /* [33][0][][] */ -4,72,38,8,15,-4,33,-24,-79,-100,-54,-114,-14,7,10,-78,20,56,37,-29,-40,32,74,-63,32,26,36,24,29,-32,-11,14,11,-63,-14,-51,65,19,-30,-27,-36,-18,41,-43,-29,-4,-97,9,28,46,10,-11,4,-34,1,20,-11,-29,-29,-3,-21,19,6,4, -28,18,35,15,-6,31,-32,-24,-4,-28,-11,26,25,54,-37,-5,12,5,9,33,11,26,-30,-45,-7,0,-14,-35,-13,-14,32,-1,0,3,-17,-49,83,-20,29,55,-60,-107,-30,-77,11,-21,-2,38,34,-28,-53,24,22,31,1,-6,-8,-23,21,26,-12,-15,-3,-5, 6,100,15,17,43,-39,3,-33,30,-22,-21,-14,34,27,8,-1,8,22,12,-36,-31,-43,-6,-47,26,7,38,29,27,-30,-42,-56,38,-14,-17,74,-27,-23,-31,-27,-3,-5,-77,-27,26,3,-48,25,127,-15,-33,11,25,-20,-5,-6,11,-51,-2,-5,0,-12,-34,35, 
  /* [34][0][][] */ 8,-48,1,28,-18,17,-31,44,-15,33,-38,-79,-25,-6,48,13,38,-74,-11,23,-42,-9,61,-39,19,-23,1,13,10,-50,0,-51,28,-26,35,-14,1,-34,-40,42,-15,41,-4,-65,-11,-65,-24,71,-12,-9,-75,-41,30,49,-2,29,0,-9,14,-8,-10,-17,-78,-5, 11,42,13,22,35,-5,33,-27,-32,21,-50,-17,4,23,-58,-44,-19,16,0,4,-6,-14,-25,39,6,-20,-16,-21,21,21,13,-35,14,16,-13,53,72,42,-8,-20,-12,36,10,-18,28,40,-59,37,41,-41,-44,28,11,-4,13,41,-11,27,20,6,13,-26,-29,14, -8,-4,5,47,73,29,-6,-12,-27,70,48,85,71,127,-60,18,-26,-1,36,18,15,57,-6,26,-22,10,-4,7,-3,-9,14,-55,-16,56,30,-26,59,35,-2,19,19,-65,-75,61,-12,91,-41,9,41,15,-32,41,-1,-58,9,35,46,-40,-20,-30,-39,-29,-33,3, 
  /* [35][0][][] */ -32,18,-49,-17,-72,31,36,3,-82,-74,35,27,-81,-14,-63,-65,-11,-25,3,-42,24,-34,-11,11,-25,26,-36,34,-32,-30,-59,-47,-24,-52,-34,56,-1,19,-64,-65,-17,26,-49,-22,-24,9,-25,23,-80,-18,-8,-5,-2,24,-65,-46,-3,-39,-60,0,-46,37,5,-72, 12,-11,-80,-10,23,-74,-46,-61,-58,44,2,-69,-81,-36,29,-26,-44,-54,-79,23,-9,-33,-66,-75,-13,15,15,-20,-19,-12,-1,-33,-83,-62,-32,-36,-17,2,-64,47,-4,-3,-111,12,-38,18,1,-43,8,24,-24,-56,64,-35,-56,-11,-29,10,-3,54,-15,-27,-60,34, 24,-20,15,36,-120,-40,-2,-65,39,32,34,-7,29,-59,21,-17,60,-77,-127,-41,57,-62,7,-49,41,-15,-25,41,-2,-25,-24,-48,6,0,33,-12,-28,24,-29,-17,-3,-5,-50,-44,7,-67,-2,30,-74,-52,-41,-68,23,-49,-52,-6,-70,-39,17,29,-20,-77,-66,-49, 
  /* [36][0][][] */ -20,-4,-1,-49,8,-1,-50,-105,-34,2,0,-38,-41,-2,20,-54,-39,-81,-89,13,-20,26,-44,-33,-22,24,-40,-41,21,-27,-1,-108,-29,26,11,-40,-42,-49,18,-36,-25,-19,-51,9,-18,-7,30,-12,15,24,-37,-45,-7,-2,-46,-34,15,-10,20,28,-34,-39,51,20, 22,23,3,-55,-28,23,21,48,56,-11,-7,53,1,7,28,36,38,-39,0,-31,0,-14,3,0,1,0,34,31,40,-13,40,63,-34,-17,28,-23,-38,58,-19,-31,-4,-7,8,8,29,16,5,-24,-45,-14,41,5,38,-44,45,-41,-6,-20,-3,-18,8,-47,-39,-13, 30,-19,-68,-5,-58,7,-35,-1,75,14,-33,-2,-27,0,-52,34,-7,68,-15,-11,39,7,-42,9,-39,-3,1,2,-21,15,26,47,12,35,20,-39,-47,101,-53,-43,-5,82,127,-33,33,-69,19,-27,-2,29,-11,20,-25,-29,-6,-57,-42,29,-37,34,-19,-3,-14,27, 
  /* [37][0][][] */ -6,20,-4,-74,26,48,-87,51,-8,83,6,-127,118,-83,38,-6,-29,-38,86,17,66,-16,-62,16,7,36,-29,-12,-89,69,14,13,50,-61,-82,69,-30,-114,-64,83,-59,-60,-55,-3,18,-17,20,7,23,23,-16,23,67,-3,11,53,-46,43,27,-10,-42,-78,-35,-3, -37,2,-109,-7,20,-49,-52,-3,25,-51,-30,-78,6,-53,-77,-68,-16,-75,-69,-37,-58,59,-73,28,70,-70,-13,-18,-14,-88,34,-104,48,39,-3,21,-64,-51,-47,-16,29,-96,-74,-14,-73,-109,-22,-94,-88,-72,-26,58,-2,-40,-58,-67,-11,-21,51,-59,-84,-28,-68,20, 66,-38,-35,-67,49,-22,-27,-19,10,-27,-14,-38,-76,53,1,6,-39,-4,1,15,69,-80,34,25,-33,50,-16,-49,-1,-9,65,-70,53,11,-19,59,-2,-63,-23,23,-63,30,-47,-29,-37,84,-19,63,-6,22,2,-15,-26,-79,69,-67,-85,63,-25,-65,73,5,-28,-46, 
  /* [38][0][][] */ -9,-53,-38,3,-14,44,33,-34,87,-37,-36,57,-44,38,10,9,-42,-73,-67,60,-4,24,-2,16,30,39,39,-29,31,46,39,56,-44,-6,37,-17,-67,-14,69,17,-7,-10,-73,46,22,-118,-7,8,-17,-7,29,54,2,-19,83,-21,29,18,24,25,22,-3,40,22, -14,-11,20,0,25,15,-30,-42,6,-22,-12,21,-6,-17,-27,30,-3,-53,-45,-10,35,10,0,54,39,47,38,5,-32,48,33,-39,0,-37,-1,-36,-31,-23,-47,-7,-1,37,-13,-81,-47,-18,9,1,18,4,9,-43,-28,7,-3,-48,-12,52,-14,24,-47,40,28,43, 48,-35,-6,-33,-49,-15,-38,-9,-17,-8,6,-49,-23,17,-6,7,14,127,-7,40,12,37,19,67,11,9,-43,33,5,0,3,17,16,-16,-32,16,8,95,-24,-26,29,43,103,-15,-16,-40,7,-22,-62,-22,-58,-3,53,-3,-29,-3,21,1,14,26,72,-62,-37,25, 
  /* [39][0][][] */ -53,-19,45,-49,-66,8,66,31,4,-31,19,-59,-38,43,0,-41,-55,-38,-31,14,7,-58,-61,5,67,-1,16,41,8,-60,13,8,-9,52,39,-10,49,-55,24,-54,42,-47,-8,-26,-59,-36,67,14,11,56,-66,-39,-13,-24,5,-48,7,42,3,-47,-59,22,42,-51, 24,31,39,-28,-55,25,-85,47,4,17,-9,-7,-16,-95,-2,-69,34,-77,10,20,-16,17,-62,46,68,-50,-20,-45,-1,-17,-28,-34,-29,46,-48,-56,-58,-21,16,-25,-39,-5,-88,-4,-36,5,-70,-6,-14,9,10,6,61,-49,-44,-11,21,-12,45,25,-3,35,-42,39, 33,-30,-79,-66,-61,-91,16,7,26,-64,-9,-5,-19,15,-13,-36,-33,-3,-64,-32,31,16,27,14,-50,41,-38,25,0,33,-71,-21,1,-8,-58,-41,-25,8,-82,-22,-49,-63,-61,-127,-16,-41,22,-23,22,-58,41,-17,-30,-62,35,11,-63,8,3,33,50,-70,-58,-3, 
  /* [40][0][][] */ -40,-37,102,-27,-68,14,41,113,23,41,83,96,-70,-17,120,-11,-3,-119,-109,22,-30,30,-6,-26,-6,4,11,-42,9,0,-32,52,-33,52,33,10,-78,5,44,-1,32,0,-9,2,38,-23,62,66,-10,-25,19,3,0,32,13,-23,-23,-58,-8,-10,-30,-20,14,-17, 10,52,-27,1,2,-14,-6,13,-29,-37,23,-34,-31,8,10,-49,-28,7,5,72,13,-27,4,34,28,21,21,-20,-13,32,53,6,-14,-55,32,20,-52,-13,-20,-19,-36,-64,10,-16,23,9,-62,2,37,-7,-8,26,21,45,64,30,-26,48,49,20,37,-16,27,7, -28,81,0,35,34,4,2,-36,20,14,20,25,-51,-18,-4,-40,49,87,93,-44,19,5,18,37,25,-32,17,17,57,31,-25,12,3,-13,18,-127,78,23,-34,32,22,-21,32,67,6,-35,19,39,34,42,-49,-19,30,48,22,-8,5,9,-16,16,-78,32,-48,31, 
  /* [41][0][][] */ -22,17,8,-11,3,17,-14,-7,-3,-31,0,-45,11,-29,3,-6,-11,-27,-18,-25,-27,12,7,17,9,5,8,8,38,-20,-16,21,18,-7,2,-21,13,14,-17,-12,-2,14,-104,-2,-32,-35,-8,-38,-41,-10,-32,-38,-11,-45,-3,21,18,-31,22,14,-2,-18,23,-32, -21,-41,7,-18,4,16,7,-64,20,25,-43,-19,-27,-1,-6,55,9,-25,23,-20,37,-53,-23,64,17,-41,15,-25,-16,1,-29,26,-25,8,24,-1,15,37,25,-15,-17,19,13,-4,21,-1,5,-24,-52,9,33,40,4,-37,-28,12,-50,62,4,22,-16,-29,0,-10, -1,-43,-58,3,-30,-4,-30,-51,70,-62,-3,-14,-104,-21,38,35,-22,94,51,8,-3,-35,-39,-5,5,21,-5,15,6,38,10,36,-14,-47,-38,-127,5,91,-31,-56,71,57,74,-32,2,-52,-14,-53,-57,17,42,-48,26,7,-76,1,-45,11,41,26,-13,-40,1,4, 
  /* [42][0][][] */ 47,-18,-7,7,-26,-22,31,39,5,31,50,100,-40,19,77,80,1,-41,-7,-16,90,14,-3,46,6,18,46,24,15,-79,15,2,-36,-1,-24,-27,-38,-6,76,-13,-27,-23,-41,37,18,-59,93,5,20,39,-23,2,-5,39,46,-2,-7,-43,22,13,-26,-19,95,19, 6,-33,23,-3,-5,-45,63,13,20,-62,7,-17,4,-78,9,43,35,-55,8,52,21,15,-26,85,22,9,-26,-34,-17,-28,47,-10,-32,-36,9,-9,-16,34,-61,-34,68,28,44,-42,1,-22,40,-21,-37,32,40,-50,-10,55,-63,-35,-46,-55,62,32,-48,45,48,15, -40,-2,-23,33,32,9,-34,-50,-53,6,28,-42,-54,-79,42,-42,23,12,12,9,-39,17,-34,-31,-55,16,27,-2,-33,-21,-8,-8,-19,-23,-11,-36,-40,-9,-29,32,-19,-94,-127,-35,2,25,2,10,-90,27,-25,-45,21,-6,-12,34,-16,-45,30,28,15,-4,-3,52, 
  /* [43][0][][] */ -38,12,1,44,28,46,26,-62,11,-36,8,-30,40,43,-39,-20,7,27,17,8,-9,-18,0,14,67,56,16,-46,-38,77,15,-85,58,-5,40,-38,27,30,22,-27,-55,-48,72,22,39,0,-2,95,4,20,-46,18,-3,-26,-79,-37,8,7,-9,23,27,25,-79,31, -5,-54,-7,36,-27,-41,-72,-65,-67,14,-3,-8,24,83,7,0,-87,-40,-6,8,-60,20,-37,7,40,-34,22,-24,32,79,3,-66,51,-22,-34,-54,3,16,-72,-17,8,-27,-80,-9,30,-6,-50,-7,125,25,-19,-50,57,-31,-21,-15,-8,-26,17,38,127,21,13,-12, 41,-1,5,-44,11,-34,30,46,3,-43,23,-77,-45,6,-44,11,43,-40,-14,-74,-28,-27,1,-13,-24,11,-20,-73,0,-57,5,-42,-45,-47,-54,-27,8,-63,-15,14,33,7,-51,-27,-20,34,-11,6,25,-25,26,-17,30,-25,26,-10,0,14,-39,-26,-3,-22,-31,-6, 
  /* [44][0][][] */ 21,-127,-13,36,-30,-20,-40,-8,-30,-32,4,-21,-39,-27,-46,-69,-49,-43,62,-5,112,-75,-22,-14,-19,-31,5,1,-25,-72,16,-63,-23,0,-25,-22,-65,-77,-8,-38,-14,-34,29,-10,29,-79,16,-20,-29,19,42,-9,24,-43,-66,-16,-18,-2,-9,21,-7,-19,-30,22, 15,65,-52,-36,-10,54,31,-18,-32,-42,19,-52,56,14,20,-65,67,74,8,11,-15,-45,83,-48,-14,-1,-53,-21,-17,51,-18,-22,-14,-28,29,52,58,54,-36,-7,3,21,46,-50,19,17,32,48,15,1,-21,-57,-10,13,-34,30,35,-26,28,34,25,26,36,14, -47,-20,59,28,36,-93,-1,5,-86,57,73,47,35,39,-39,-11,5,18,9,-7,49,-10,47,-31,-9,-7,26,14,29,-60,49,-48,38,29,13,53,0,-29,14,-15,9,-9,-68,-19,75,-56,6,65,34,21,5,27,35,-10,14,-6,36,22,-28,30,76,51,2,28, 
  /* [45][0][][] */ 19,25,33,59,20,6,-18,57,60,56,24,84,3,-23,59,49,-27,-87,-41,-57,25,-55,-16,-38,24,9,-5,4,-15,47,19,127,-8,5,23,7,-50,-6,23,4,29,23,-13,-26,32,2,107,4,-44,14,75,58,33,-3,45,-55,1,-33,12,-5,44,9,32,-11, 0,-29,-18,53,-47,12,28,-49,-10,19,-24,19,-9,-15,58,-2,1,-54,-19,62,26,15,-7,-47,2,24,2,16,37,40,18,-28,-42,-4,36,4,1,20,-19,6,-42,79,10,15,-4,19,26,4,-12,18,-12,-31,4,-7,-43,-7,9,-1,26,-34,-8,5,29,-17, -23,19,-29,-5,-26,-6,-6,-36,27,0,18,-25,19,-19,17,-26,2,-10,-16,-20,-16,-3,-20,-11,11,24,-28,-3,-6,-27,13,-9,-44,0,6,3,-48,48,-14,-17,32,-35,5,29,-39,-10,-6,-16,-35,0,49,7,20,22,-24,-10,-18,25,-12,11,26,-11,-19,18, 
  /* [46][0][][] */ -1,-11,-17,-21,-17,-35,7,74,-35,-85,-36,-80,10,-19,-60,-56,16,-27,-17,-1,-48,-2,-29,39,-41,-23,18,-19,-13,18,-22,31,-35,43,-24,-7,-30,-45,-12,19,46,56,18,22,-1,-57,29,-19,-26,-18,4,-65,11,-17,-44,-28,4,-9,-30,-39,5,0,69,11, -20,69,0,-54,-30,22,19,-11,40,-30,-29,-8,-74,-99,56,-16,56,-127,-22,-61,2,0,16,82,28,-29,-5,40,-12,15,38,-45,-4,-7,-27,-30,-78,-87,-14,-19,-24,24,-116,-40,-29,-57,-10,-12,3,-34,-41,24,30,-33,33,2,-36,21,-4,-48,-3,28,42,-17, -30,-10,-38,-63,-32,-17,-18,-49,113,-39,6,17,-4,-72,12,-5,36,33,35,-38,-19,21,3,-53,-48,21,49,23,40,9,-11,-63,8,30,15,21,-29,-29,23,42,-3,31,19,-45,9,4,-23,-49,-27,5,38,20,36,31,-3,0,-53,23,32,-28,-19,-7,-41,-24, 
  /* [47][0][][] */ 10,46,39,-11,-26,-33,10,28,5,4,40,-84,18,37,-26,-47,79,28,54,50,-20,7,40,-45,12,-1,20,24,14,17,30,-28,-8,27,15,7,46,9,-27,10,-8,-8,29,20,-4,35,-27,48,12,5,-23,-38,-4,-9,-50,47,44,-41,42,-26,27,13,-18,29, 12,127,30,14,-8,-62,31,10,-18,38,8,16,59,21,-31,-73,-4,-51,-67,-16,-28,33,-8,35,8,-5,12,8,17,-8,15,-22,24,15,1,-38,6,-56,16,2,-74,-73,-24,6,-3,-62,-33,31,88,-31,-38,-47,-39,-30,-28,8,25,9,-9,13,92,-16,-38,6, 32,27,-14,-19,-50,41,-21,-15,22,13,-23,-33,-9,-7,11,-19,0,11,-15,-25,-13,-2,-27,1,39,-2,-4,4,-11,27,-6,-38,-29,-38,-9,4,-16,-6,-13,-32,-74,-9,-57,46,-25,15,-42,3,-23,6,18,19,-33,-21,-12,31,11,-11,17,-15,-28,-7,-48,-19, 
  /* [48][0][][] */ -12,-72,6,-33,3,22,27,-8,0,-53,-8,-26,-33,-41,-11,1,-29,-36,-4,3,29,5,-36,33,-13,18,-7,-40,-9,6,-22,-67,-12,18,17,-24,-20,-58,5,-43,-6,-38,-2,-3,-22,-57,-23,19,-21,15,-59,-30,-19,-19,-20,-12,24,-36,11,-11,-26,17,-9,4, 10,7,-32,-35,-19,-22,10,-23,7,-23,21,-112,31,-14,-36,-17,20,62,35,-15,-31,9,48,10,8,19,14,-11,16,55,-30,-64,-3,-25,21,-1,29,28,-33,-17,8,38,68,39,-19,-5,11,5,39,-26,-26,-44,-11,-5,-36,-23,10,37,-19,-2,-6,19,-20,27, 18,-39,-20,-10,35,5,2,-22,-11,27,-18,42,27,102,-18,5,-18,-33,-1,7,32,23,-4,14,-5,16,8,-12,13,9,12,-23,54,-1,10,35,3,-35,4,-17,-7,-5,-15,11,22,70,17,35,47,13,-25,13,-19,2,1,0,0,52,-27,-16,127,60,3,11, 
  /* [49][0][][] */ -11,-78,-14,23,-22,16,-13,45,46,127,-20,-3,-5,-42,-12,28,10,-6,-9,-23,-15,-36,-26,-19,-18,-13,16,44,-23,8,8,18,18,7,-9,-49,-26,-5,5,-3,11,0,-4,10,-2,4,-6,-27,-11,-6,-16,2,-5,-41,-21,4,-3,20,8,-11,-19,-5,15,17, -1,-41,24,-34,-3,24,-20,99,61,42,-14,10,11,-88,54,35,-17,-81,-8,-33,28,-18,50,-10,17,7,-1,35,-13,35,20,26,-20,-9,-3,-33,-9,-27,58,-24,11,81,-10,20,-30,-64,43,5,-31,13,80,103,21,-5,48,59,-6,-39,6,-21,47,-3,40,-13, -6,-58,-1,-44,-2,-4,15,35,-2,18,-2,-63,-47,-31,18,-54,-17,43,-25,26,21,-3,15,-22,-18,-11,10,-14,-19,60,14,12,23,-51,19,6,-57,-33,-21,-5,-3,15,36,-32,36,27,-45,-42,24,-8,79,28,18,-6,9,11,16,-14,-25,15,68,-21,-29,-7, 
  /* [50][0][][] */ 5,1,31,47,-9,-2,37,89,35,46,-18,77,16,-19,20,37,6,-52,15,-35,11,-26,9,-68,0,26,10,30,1,51,-37,106,20,23,-1,15,-46,-2,42,-10,21,11,-40,10,0,-24,55,-23,-4,-2,52,25,-24,14,59,-18,-21,-59,-15,-35,-6,22,28,21, -31,6,-12,-12,-15,-23,15,13,-16,-51,39,-2,9,-14,-6,7,-2,-25,-39,4,43,-4,22,-1,-23,5,-17,18,21,94,-6,-13,-20,41,2,-9,-40,-36,4,21,15,55,45,-49,13,61,-16,26,31,-20,-28,18,20,22,-21,7,7,-8,21,20,-9,-30,1,16, -19,-37,-31,-34,-54,-39,-1,-12,11,-63,-30,-95,-17,-27,16,-41,-25,-5,-23,-28,29,-41,-10,8,20,-15,15,-7,31,-25,-12,-52,-43,-6,9,-22,-74,14,-16,-6,21,-53,-127,-50,-40,-48,-61,-13,-38,-21,11,6,8,-56,-11,8,27,2,-35,-19,-54,16,-48,18, 
  /* [51][0][][] */ -52,30,29,43,0,-22,-26,-44,2,6,-28,-51,34,7,-57,-45,54,60,52,63,-17,16,-14,-67,-15,36,-31,-26,-13,11,6,-78,-19,-12,-38,19,66,20,-26,4,-6,-26,53,-45,32,22,-86,64,23,-14,-19,-50,2,4,-39,22,-17,52,-23,35,5,45,-46,39, -34,-63,-18,24,-8,65,-10,77,-113,-24,2,44,-7,55,59,-6,10,-41,-33,53,-39,-33,-38,5,-56,43,-5,20,25,-29,-31,-26,-3,55,-31,-15,13,17,32,-4,-67,-69,-108,-38,32,-47,-21,64,18,-16,-90,-27,-56,2,14,79,-13,22,1,11,43,-31,-4,36, -2,72,31,-38,-87,7,15,-2,8,-60,-93,-127,-58,-58,-67,-62,-15,-1,-79,-74,6,-8,-42,-28,-8,-24,18,-72,-40,-38,1,-30,-6,-18,33,-47,-125,-89,-51,54,-50,-35,0,-86,-13,-54,-57,-61,-55,-22,4,-17,-21,-51,-15,3,-35,-44,6,-24,-3,27,-76,-6, 
  /* [52][0][][] */ 39,-29,12,9,2,27,-15,24,39,11,17,20,8,-10,62,71,-7,-53,23,-8,-24,-5,52,3,22,27,15,17,0,6,5,81,19,19,-13,-13,-7,21,29,37,39,27,2,37,-2,22,48,-6,-32,0,56,64,-13,-4,67,5,23,27,-12,4,29,33,44,37, -4,-33,-1,8,-35,2,-16,-44,22,-7,-47,0,-31,-26,-38,32,10,-48,39,18,20,-13,21,34,-1,28,23,-4,-20,13,37,8,24,16,36,10,21,33,0,-3,27,64,48,-1,-1,10,46,13,-9,-14,34,18,-10,27,10,-18,9,-3,35,6,7,-18,23,-8, -24,-52,-35,-31,-44,-28,15,-65,-25,-64,-57,-127,8,-50,-8,-86,-14,3,-12,-22,23,19,-5,25,-20,-5,-23,-26,-8,-4,-25,-83,-25,-25,24,-28,-100,11,-25,6,-28,-9,-110,-25,-53,-65,-55,-9,-48,-1,-27,21,28,-92,27,-68,-3,1,-22,6,-2,18,-71,12, 
  /* [53][0][][] */ -50,3,-67,-98,-9,-66,-7,93,28,-47,-40,-14,-62,-62,-54,49,-69,17,-80,-68,-51,26,-44,-17,-33,-75,81,-10,47,14,70,-21,36,45,63,-52,10,-39,-30,62,-42,-109,-90,-29,-114,-21,-33,-61,0,-50,-26,-107,4,-35,-94,-48,-30,42,65,5,55,-66,33,14, 30,-40,-53,-71,14,17,66,-40,-7,5,-68,-46,-38,2,-1,55,6,-79,-46,-55,58,-60,12,-19,24,9,34,0,-3,41,-24,-67,-94,-2,-32,64,0,-65,5,-63,-48,-15,-104,-71,-22,47,-62,-42,-70,14,-16,35,-64,52,-47,-54,9,-13,-73,26,75,-50,32,31, 36,-55,27,-59,-44,-1,-12,44,-16,-68,62,10,-59,-110,-1,6,-22,53,-24,-3,44,-51,-57,-12,-2,-43,84,-1,-6,-30,50,-25,-92,-20,8,-47,-90,-7,18,-51,100,14,127,-18,71,-54,-60,67,-73,8,-24,-46,-46,40,9,44,52,-14,96,-71,10,23,-57,6, 
  /* [54][0][][] */ 19,-37,-38,11,-79,-17,-37,-127,28,12,-15,-91,-31,46,-1,-51,61,-7,31,-78,11,-45,-75,32,34,-14,-7,-86,-23,85,-40,-80,-30,-38,-19,57,-34,61,32,-58,27,-27,-65,19,-22,-1,-68,-48,47,-23,0,6,47,15,-73,3,38,-81,15,-5,-31,34,-73,27, -62,64,-23,-46,7,-64,45,-100,11,-21,-18,-98,10,-6,-11,-104,71,67,12,-40,-19,17,-8,-71,6,50,-56,-33,5,-44,37,-110,-29,-10,-54,-24,-3,76,-5,56,4,27,35,-16,42,97,7,48,20,-15,-71,-109,27,-46,-80,21,12,81,22,62,37,17,-107,-38, 30,-36,15,47,73,17,5,1,-25,11,23,112,59,61,-29,34,-6,-27,-7,-24,6,-37,39,-27,24,61,26,33,15,-43,78,-30,23,-24,-48,-28,25,-40,50,-5,3,-6,-116,-9,4,58,50,-57,-31,-27,-40,-32,15,27,54,31,51,-20,8,13,104,1,6,54, 
  /* [55][0][][] */ -53,-18,-21,-72,-33,42,22,-75,-55,-4,-36,-55,-91,-61,-34,-85,-53,25,54,5,-51,17,-24,66,12,-64,50,0,29,-3,27,-94,-22,-2,-56,-101,-19,48,-79,19,-112,-62,8,60,30,-47,-32,-35,-5,-63,-50,-9,25,-22,-65,29,-21,-53,31,20,-18,-57,-19,16, 47,-37,-25,-107,-107,-44,-42,-98,-42,-32,-22,-53,-86,-87,-29,-78,-55,31,-43,-71,1,53,40,23,48,-6,-34,-14,51,-91,-62,-108,-21,-79,12,56,-100,-123,-34,-49,-127,-69,-38,32,-60,-27,-2,38,-97,-54,-116,-62,-7,-19,-7,27,1,-70,17,7,-127,-12,-77,-58, 15,-54,-71,-27,0,-25,-36,29,-4,9,-33,-53,-14,-11,-46,32,39,-15,55,6,45,-26,-45,-29,-23,26,56,-40,40,-22,43,-34,-24,9,3,-9,-27,28,-11,34,30,26,-54,46,38,-40,27,-31,-35,3,18,-46,-33,-42,37,-22,25,21,-39,-1,-21,-60,-41,4, 
  /* [56][0][][] */ 59,-40,1,-46,-1,-20,-55,24,-57,27,7,-42,-57,-29,31,-28,-62,-57,26,-47,3,-30,-51,1,-6,24,25,-58,-67,-14,-10,-72,-27,-5,42,23,-84,-41,-55,-26,-66,-74,-7,-13,22,-95,-12,-78,-35,-35,40,-54,-1,-47,19,16,27,-80,-64,13,16,-64,32,-59, 50,-65,-71,-10,-28,36,47,13,25,-104,-48,-29,-59,-46,44,4,6,14,-127,17,-28,-69,-70,48,56,-48,10,-115,-55,44,-6,-88,30,-72,-31,36,-58,-12,-68,-7,27,19,-4,-6,-35,-68,56,-33,8,4,-28,-27,-64,-76,-35,-2,-35,1,-9,38,-13,-47,-20,15, 13,-58,-32,-29,5,23,0,50,45,-65,55,-54,-65,32,-35,-59,-20,32,18,43,-16,-6,-58,-47,-1,-28,14,0,57,4,-4,15,-1,-54,52,25,-68,37,-49,21,-5,-55,31,-35,57,28,-1,5,-23,-27,-14,12,22,16,-52,-42,17,24,22,-56,56,-42,-8,9, 
  /* [57][0][][] */ -89,-41,39,-1,-57,35,-23,31,22,-2,4,51,-69,48,-81,19,7,-36,31,8,37,-38,-70,-13,27,30,1,-11,-6,16,50,-37,-23,-15,22,24,-27,-52,40,7,-29,-43,32,-6,-44,-1,-48,-1,-54,-74,-66,59,-12,3,-63,-46,-33,-39,-22,33,17,-9,-87,-34, 26,-34,29,-4,-29,-46,-8,-83,-45,26,-75,-58,-73,-55,-33,-2,-30,7,-22,-102,-31,29,-28,127,2,37,12,43,-5,-44,-31,-37,5,-26,14,-48,-27,-124,-68,49,-124,5,-58,-44,-80,-125,-8,0,-107,5,-17,-81,2,-76,-22,35,41,-2,-12,1,50,-36,5,-65, -16,-30,-29,43,-89,0,13,-56,-17,-10,-58,-98,-36,-3,12,2,-46,25,34,-68,-108,-49,-8,6,-41,-49,-69,21,66,-16,-10,-85,-52,91,75,-97,93,-43,-87,41,-33,-52,-1,5,-5,-77,-125,7,-100,26,-95,26,56,-45,-17,-51,15,23,-6,-10,19,8,-87,88, 
  /* [58][0][][] */ -37,46,-37,82,-8,34,18,-44,16,12,-24,-9,9,-30,-41,-74,39,10,48,-23,-77,-4,-53,-2,-22,-46,-27,-11,40,43,10,-70,-21,-10,-27,-51,-3,83,-67,36,-43,41,-87,58,22,-20,22,3,127,6,-58,-62,-4,-6,4,12,-9,10,65,-1,-36,-61,-19,20, -59,2,-49,24,-56,-9,-16,45,-42,-69,13,-8,-63,-42,-54,-1,-36,-17,-62,-11,-63,14,25,-30,50,40,-35,22,8,13,31,-29,-36,-29,32,-17,-70,18,-42,1,-75,-7,7,29,37,11,-46,8,5,-63,-75,33,22,-17,-6,33,-33,-52,-27,-7,-16,46,-1,-45, -18,7,15,5,-62,-35,0,-80,-32,-36,-25,34,-28,-21,-33,19,12,-40,20,-57,-11,9,-25,-28,63,-52,-42,-32,4,25,-7,-79,-34,-32,11,3,-1,6,-90,30,19,2,-32,47,3,26,2,-65,-49,-67,-21,30,31,-27,-71,-2,38,-50,-5,-11,-33,50,-36,26, 
  /* [59][0][][] */ -43,-20,69,21,-23,-24,58,-65,-45,78,22,70,79,20,127,41,1,-80,-44,-64,124,-13,78,-32,13,60,11,0,-38,84,31,0,8,-20,-7,-5,-10,68,79,27,21,-9,-13,-33,-27,53,91,-30,-9,9,71,20,-54,-57,79,-4,43,24,-43,37,-18,13,20,49, 48,2,51,32,-65,6,-28,-59,-6,15,-39,57,-9,-91,21,-8,-26,-27,-10,73,-5,23,66,-58,-36,-37,15,40,30,108,-20,-13,-16,52,36,-45,-93,-74,-30,-54,69,-3,5,-81,36,11,71,-18,-13,-2,43,-5,-44,61,53,19,17,-20,-17,-48,59,-39,10,-9, 19,-44,25,-28,-60,-33,14,9,2,32,69,9,34,28,-23,14,28,64,-35,-76,-21,-2,24,37,-1,49,-9,69,-26,109,50,-1,-30,-38,24,-4,-66,18,-25,-10,-29,-10,36,49,-4,69,-3,0,72,20,-25,54,4,32,54,14,42,18,-20,16,-60,25,13,7, 
  /* [60][0][][] */ -17,-33,-85,-48,-69,-27,-6,-59,-51,-111,29,-54,-14,-26,69,-59,8,85,73,21,82,-44,64,99,-27,-22,26,-37,-3,-27,-17,-13,7,61,35,49,-9,55,-37,-57,23,87,127,35,-10,-2,-5,-30,-1,28,-56,-45,1,-6,-77,17,10,52,-24,4,-12,43,-32,0, 15,99,-65,-31,-4,13,35,-38,-49,-16,27,5,38,68,-1,-12,7,-6,49,-20,-21,-27,-62,5,43,-11,-22,-4,6,35,15,-32,-11,-21,-13,-21,44,33,5,-26,-66,-47,34,-39,26,-18,-19,-2,6,37,-57,-12,-32,-17,-37,31,41,-39,12,-11,17,28,-50,14, -5,-21,10,14,10,-9,-20,62,-59,36,-40,-5,-4,41,-19,-6,-37,2,1,16,-13,38,1,-28,5,-14,22,5,19,-14,6,-3,35,43,35,-17,2,-38,-5,18,-51,-28,39,50,-5,-9,-17,5,30,-10,-23,7,10,-12,-22,1,-9,-26,-23,12,-13,-10,16,40, 
